digraph Tree {
node [shape=box] ;
0 [label="X[0] <= 4.935\nmse = 1.275\nsamples = 5000\nvalue = 2.027"] ;
1 [label="X[0] <= 3.106\nmse = 0.778\nsamples = 3872\nvalue = 1.687"] ;
0 -> 1 [labeldistance=2.5, labelangle=45, headlabel="True"] ;
2 [label="X[2] <= 4.284\nmse = 0.508\nsamples = 1983\nvalue = 1.33"] ;
1 -> 2 ;
3 [label="X[0] <= 2.215\nmse = 0.605\nsamples = 798\nvalue = 1.612"] ;
2 -> 3 ;
4 [label="X[2] <= 3.498\nmse = 0.43\nsamples = 416\nvalue = 1.323"] ;
3 -> 4 ;
5 [label="X[4] <= 31.5\nmse = 0.603\nsamples = 160\nvalue = 1.65"] ;
4 -> 5 ;
6 [label="mse = 0.0\nsamples = 1\nvalue = 5.0"] ;
5 -> 6 ;
7 [label="X[4] <= 1971.5\nmse = 0.535\nsamples = 159\nvalue = 1.629"] ;
5 -> 7 ;
8 [label="X[1] <= 8.0\nmse = 0.371\nsamples = 124\nvalue = 1.484"] ;
7 -> 8 ;
9 [label="mse = 0.0\nsamples = 1\nvalue = 3.25"] ;
8 -> 9 ;
10 [label="X[7] <= -121.86\nmse = 0.349\nsamples = 123\nvalue = 1.47"] ;
8 -> 10 ;
11 [label="X[4] <= 1432.0\nmse = 0.404\nsamples = 22\nvalue = 1.81"] ;
10 -> 11 ;
12 [label="mse = 0.322\nsamples = 15\nvalue = 1.534"] ;
11 -> 12 ;
13 [label="mse = 0.068\nsamples = 7\nvalue = 2.402"] ;
11 -> 13 ;
14 [label="X[6] <= 34.68\nmse = 0.306\nsamples = 101\nvalue = 1.396"] ;
10 -> 14 ;
15 [label="mse = 0.261\nsamples = 82\nvalue = 1.517"] ;
14 -> 15 ;
16 [label="mse = 0.163\nsamples = 19\nvalue = 0.873"] ;
14 -> 16 ;
17 [label="X[5] <= 2.533\nmse = 0.781\nsamples = 35\nvalue = 2.141"] ;
7 -> 17 ;
18 [label="X[3] <= 1.062\nmse = 0.618\nsamples = 8\nvalue = 3.198"] ;
17 -> 18 ;
19 [label="X[5] <= 1.951\nmse = 0.32\nsamples = 5\nvalue = 3.582"] ;
18 -> 19 ;
20 [label="mse = 0.0\nsamples = 1\nvalue = 2.536"] ;
19 -> 20 ;
21 [label="mse = 0.058\nsamples = 4\nvalue = 3.844"] ;
19 -> 21 ;
22 [label="X[5] <= 1.585\nmse = 0.46\nsamples = 3\nvalue = 2.559"] ;
18 -> 22 ;
23 [label="mse = 0.0\nsamples = 1\nvalue = 3.5"] ;
22 -> 23 ;
24 [label="mse = 0.026\nsamples = 2\nvalue = 2.088"] ;
22 -> 24 ;
25 [label="X[7] <= -121.77\nmse = 0.399\nsamples = 27\nvalue = 1.827"] ;
17 -> 25 ;
26 [label="mse = 0.0\nsamples = 1\nvalue = 3.5"] ;
25 -> 26 ;
27 [label="X[7] <= -117.505\nmse = 0.303\nsamples = 26\nvalue = 1.763"] ;
25 -> 27 ;
28 [label="mse = 0.223\nsamples = 25\nvalue = 1.703"] ;
27 -> 28 ;
29 [label="mse = 0.0\nsamples = 1\nvalue = 3.25"] ;
27 -> 29 ;
30 [label="X[0] <= 1.841\nmse = 0.214\nsamples = 256\nvalue = 1.12"] ;
4 -> 30 ;
31 [label="X[6] <= 35.315\nmse = 0.131\nsamples = 139\nvalue = 0.951"] ;
30 -> 31 ;
32 [label="X[7] <= -118.295\nmse = 0.098\nsamples = 78\nvalue = 1.089"] ;
31 -> 32 ;
33 [label="X[5] <= 2.624\nmse = 0.09\nsamples = 8\nvalue = 1.474"] ;
32 -> 33 ;
34 [label="X[5] <= 1.743\nmse = 0.005\nsamples = 3\nvalue = 1.774"] ;
33 -> 34 ;
35 [label="mse = 0.0\nsamples = 1\nvalue = 1.875"] ;
34 -> 35 ;
36 [label="mse = 0.0\nsamples = 2\nvalue = 1.724"] ;
34 -> 36 ;
37 [label="X[3] <= 1.061\nmse = 0.054\nsamples = 5\nvalue = 1.293"] ;
33 -> 37 ;
38 [label="mse = 0.003\nsamples = 3\nvalue = 1.177"] ;
37 -> 38 ;
39 [label="mse = 0.08\nsamples = 2\nvalue = 1.468"] ;
37 -> 39 ;
40 [label="X[5] <= 1.49\nmse = 0.081\nsamples = 70\nvalue = 1.046"] ;
32 -> 40 ;
41 [label="X[6] <= 33.765\nmse = 0.001\nsamples = 3\nvalue = 0.592"] ;
40 -> 41 ;
42 [label="mse = 0.0\nsamples = 1\nvalue = 0.543"] ;
41 -> 42 ;
43 [label="mse = 0.0\nsamples = 2\nvalue = 0.616"] ;
41 -> 43 ;
44 [label="X[5] <= 2.059\nmse = 0.074\nsamples = 67\nvalue = 1.066"] ;
40 -> 44 ;
45 [label="mse = 0.1\nsamples = 3\nvalue = 1.633"] ;
44 -> 45 ;
46 [label="mse = 0.057\nsamples = 64\nvalue = 1.039"] ;
44 -> 46 ;
47 [label="X[7] <= -121.45\nmse = 0.117\nsamples = 61\nvalue = 0.773"] ;
31 -> 47 ;
48 [label="X[6] <= 37.735\nmse = 0.127\nsamples = 25\nvalue = 1.026"] ;
47 -> 48 ;
49 [label="mse = 0.0\nsamples = 1\nvalue = 2.128"] ;
48 -> 49 ;
50 [label="X[6] <= 38.595\nmse = 0.079\nsamples = 24\nvalue = 0.98"] ;
48 -> 50 ;
51 [label="mse = 0.041\nsamples = 14\nvalue = 1.11"] ;
50 -> 51 ;
52 [label="mse = 0.077\nsamples = 10\nvalue = 0.798"] ;
50 -> 52 ;
53 [label="X[4] <= 370.0\nmse = 0.034\nsamples = 36\nvalue = 0.597"] ;
47 -> 53 ;
54 [label="X[5] <= 2.037\nmse = 0.02\nsamples = 2\nvalue = 1.224"] ;
53 -> 54 ;
55 [label="mse = 0.0\nsamples = 1\nvalue = 1.365"] ;
54 -> 55 ;
56 [label="mse = -0.0\nsamples = 1\nvalue = 1.083"] ;
54 -> 56 ;
57 [label="X[3] <= 1.176\nmse = 0.01\nsamples = 34\nvalue = 0.56"] ;
53 -> 57 ;
58 [label="mse = 0.006\nsamples = 32\nvalue = 0.546"] ;
57 -> 58 ;
59 [label="mse = 0.03\nsamples = 2\nvalue = 0.784"] ;
57 -> 59 ;
60 [label="X[5] <= 2.078\nmse = 0.239\nsamples = 117\nvalue = 1.32"] ;
30 -> 60 ;
61 [label="X[1] <= 32.5\nmse = 0.317\nsamples = 9\nvalue = 1.96"] ;
60 -> 61 ;
62 [label="X[6] <= 38.155\nmse = 0.113\nsamples = 5\nvalue = 1.589"] ;
61 -> 62 ;
63 [label="X[4] <= 438.5\nmse = 0.005\nsamples = 4\nvalue = 1.424"] ;
62 -> 63 ;
64 [label="mse = 0.0\nsamples = 1\nvalue = 1.313"] ;
63 -> 64 ;
65 [label="mse = 0.001\nsamples = 3\nvalue = 1.461"] ;
63 -> 65 ;
66 [label="mse = 0.0\nsamples = 1\nvalue = 2.25"] ;
62 -> 66 ;
67 [label="X[6] <= 34.1\nmse = 0.185\nsamples = 4\nvalue = 2.423"] ;
61 -> 67 ;
68 [label="mse = 0.0\nsamples = 1\nvalue = 1.804"] ;
67 -> 68 ;
69 [label="X[6] <= 34.86\nmse = 0.077\nsamples = 3\nvalue = 2.629"] ;
67 -> 69 ;
70 [label="mse = 0.0\nsamples = 1\nvalue = 3.0"] ;
69 -> 70 ;
71 [label="mse = 0.012\nsamples = 2\nvalue = 2.444"] ;
69 -> 71 ;
72 [label="X[7] <= -117.825\nmse = 0.195\nsamples = 108\nvalue = 1.267"] ;
60 -> 72 ;
73 [label="X[6] <= 34.675\nmse = 0.21\nsamples = 81\nvalue = 1.36"] ;
72 -> 73 ;
74 [label="X[5] <= 4.06\nmse = 0.119\nsamples = 52\nvalue = 1.482"] ;
73 -> 74 ;
75 [label="mse = 0.117\nsamples = 36\nvalue = 1.584"] ;
74 -> 75 ;
76 [label="mse = 0.047\nsamples = 16\nvalue = 1.252"] ;
74 -> 76 ;
77 [label="X[7] <= -121.535\nmse = 0.298\nsamples = 29\nvalue = 1.142"] ;
73 -> 77 ;
78 [label="mse = 0.2\nsamples = 14\nvalue = 1.576"] ;
77 -> 78 ;
79 [label="mse = 0.051\nsamples = 15\nvalue = 0.737"] ;
77 -> 79 ;
80 [label="X[5] <= 3.315\nmse = 0.048\nsamples = 27\nvalue = 0.987"] ;
72 -> 80 ;
81 [label="X[3] <= 1.056\nmse = 0.032\nsamples = 13\nvalue = 1.123"] ;
80 -> 81 ;
82 [label="mse = 0.01\nsamples = 6\nvalue = 1.272"] ;
81 -> 82 ;
83 [label="mse = 0.015\nsamples = 7\nvalue = 0.995"] ;
81 -> 83 ;
84 [label="X[7] <= -115.83\nmse = 0.029\nsamples = 14\nvalue = 0.86"] ;
80 -> 84 ;
85 [label="mse = 0.021\nsamples = 11\nvalue = 0.919"] ;
84 -> 85 ;
86 [label="mse = 0.001\nsamples = 3\nvalue = 0.646"] ;
84 -> 86 ;
87 [label="X[5] <= 2.994\nmse = 0.606\nsamples = 382\nvalue = 1.926"] ;
3 -> 87 ;
88 [label="X[7] <= -118.235\nmse = 0.784\nsamples = 199\nvalue = 2.238"] ;
87 -> 88 ;
89 [label="X[1] <= 31.5\nmse = 0.826\nsamples = 136\nvalue = 2.457"] ;
88 -> 89 ;
90 [label="X[6] <= 37.75\nmse = 0.435\nsamples = 70\nvalue = 2.117"] ;
89 -> 90 ;
91 [label="X[5] <= 2.196\nmse = 0.394\nsamples = 56\nvalue = 2.27"] ;
90 -> 91 ;
92 [label="X[6] <= 34.175\nmse = 0.27\nsamples = 16\nvalue = 2.69"] ;
91 -> 92 ;
93 [label="mse = 0.394\nsamples = 6\nvalue = 3.044"] ;
92 -> 93 ;
94 [label="mse = 0.076\nsamples = 10\nvalue = 2.478"] ;
92 -> 94 ;
95 [label="X[4] <= 590.5\nmse = 0.345\nsamples = 40\nvalue = 2.101"] ;
91 -> 95 ;
96 [label="mse = 0.0\nsamples = 1\nvalue = 0.525"] ;
95 -> 96 ;
97 [label="mse = 0.288\nsamples = 39\nvalue = 2.142"] ;
95 -> 97 ;
98 [label="X[7] <= -121.705\nmse = 0.132\nsamples = 14\nvalue = 1.507"] ;
90 -> 98 ;
99 [label="X[0] <= 2.409\nmse = 0.076\nsamples = 11\nvalue = 1.645"] ;
98 -> 99 ;
100 [label="mse = 0.009\nsamples = 4\nvalue = 1.394"] ;
99 -> 100 ;
101 [label="mse = 0.058\nsamples = 7\nvalue = 1.788"] ;
99 -> 101 ;
102 [label="X[1] <= 12.0\nmse = 0.011\nsamples = 3\nvalue = 1.002"] ;
98 -> 102 ;
103 [label="mse = 0.0\nsamples = 1\nvalue = 0.86"] ;
102 -> 103 ;
104 [label="mse = 0.002\nsamples = 2\nvalue = 1.074"] ;
102 -> 104 ;
105 [label="X[3] <= 1.069\nmse = 0.988\nsamples = 66\nvalue = 2.817"] ;
89 -> 105 ;
106 [label="X[7] <= -122.37\nmse = 0.778\nsamples = 49\nvalue = 2.564"] ;
105 -> 106 ;
107 [label="X[6] <= 37.79\nmse = 1.026\nsamples = 7\nvalue = 3.423"] ;
106 -> 107 ;
108 [label="mse = 0.713\nsamples = 6\nvalue = 3.16"] ;
107 -> 108 ;
109 [label="mse = -0.0\nsamples = 1\nvalue = 5.0"] ;
107 -> 109 ;
110 [label="X[4] <= 983.5\nmse = 0.593\nsamples = 42\nvalue = 2.421"] ;
106 -> 110 ;
111 [label="mse = 0.348\nsamples = 23\nvalue = 2.112"] ;
110 -> 111 ;
112 [label="mse = 0.634\nsamples = 19\nvalue = 2.796"] ;
110 -> 112 ;
113 [label="X[4] <= 492.5\nmse = 0.884\nsamples = 17\nvalue = 3.544"] ;
105 -> 113 ;
114 [label="X[6] <= 35.835\nmse = 0.028\nsamples = 2\nvalue = 2.082"] ;
113 -> 114 ;
115 [label="mse = 0.0\nsamples = 1\nvalue = 2.25"] ;
114 -> 115 ;
116 [label="mse = 0.0\nsamples = 1\nvalue = 1.913"] ;
114 -> 116 ;
117 [label="X[0] <= 3.025\nmse = 0.675\nsamples = 15\nvalue = 3.738"] ;
113 -> 117 ;
118 [label="mse = 0.496\nsamples = 13\nvalue = 3.544"] ;
117 -> 118 ;
119 [label="mse = 0.0\nsamples = 2\nvalue = 5.0"] ;
117 -> 119 ;
120 [label="X[3] <= 0.639\nmse = 0.369\nsamples = 63\nvalue = 1.765"] ;
88 -> 120 ;
121 [label="mse = 0.0\nsamples = 1\nvalue = 5.0"] ;
120 -> 121 ;
122 [label="X[7] <= -117.145\nmse = 0.203\nsamples = 62\nvalue = 1.713"] ;
120 -> 122 ;
123 [label="X[5] <= 1.495\nmse = 0.19\nsamples = 49\nvalue = 1.824"] ;
122 -> 123 ;
124 [label="X[3] <= 1.113\nmse = 0.018\nsamples = 3\nvalue = 0.85"] ;
123 -> 124 ;
125 [label="mse = 0.004\nsamples = 2\nvalue = 0.938"] ;
124 -> 125 ;
126 [label="mse = -0.0\nsamples = 1\nvalue = 0.675"] ;
124 -> 126 ;
127 [label="X[6] <= 33.78\nmse = 0.135\nsamples = 46\nvalue = 1.887"] ;
123 -> 127 ;
128 [label="mse = 0.115\nsamples = 17\nvalue = 2.119"] ;
127 -> 128 ;
129 [label="mse = 0.098\nsamples = 29\nvalue = 1.752"] ;
127 -> 129 ;
130 [label="X[0] <= 2.683\nmse = 0.029\nsamples = 13\nvalue = 1.293"] ;
122 -> 130 ;
131 [label="X[6] <= 33.3\nmse = 0.021\nsamples = 10\nvalue = 1.231"] ;
130 -> 131 ;
132 [label="mse = 0.013\nsamples = 9\nvalue = 1.262"] ;
131 -> 132 ;
133 [label="mse = -0.0\nsamples = 1\nvalue = 0.948"] ;
131 -> 133 ;
134 [label="X[2] <= 4.005\nmse = 0.0\nsamples = 3\nvalue = 1.5"] ;
130 -> 134 ;
135 [label="mse = 0.0\nsamples = 1\nvalue = 1.518"] ;
134 -> 135 ;
136 [label="mse = 0.0\nsamples = 2\nvalue = 1.491"] ;
134 -> 136 ;
137 [label="X[4] <= 1005.5\nmse = 0.191\nsamples = 183\nvalue = 1.586"] ;
87 -> 137 ;
138 [label="X[4] <= 132.0\nmse = 0.136\nsamples = 29\nvalue = 1.273"] ;
137 -> 138 ;
139 [label="mse = 0.0\nsamples = 1\nvalue = 2.25"] ;
138 -> 139 ;
140 [label="X[6] <= 37.485\nmse = 0.105\nsamples = 28\nvalue = 1.238"] ;
138 -> 140 ;
141 [label="X[3] <= 1.17\nmse = 0.08\nsamples = 24\nvalue = 1.299"] ;
140 -> 141 ;
142 [label="X[2] <= 4.187\nmse = 0.058\nsamples = 23\nvalue = 1.266"] ;
141 -> 142 ;
143 [label="mse = 0.047\nsamples = 19\nvalue = 1.219"] ;
142 -> 143 ;
144 [label="mse = 0.048\nsamples = 4\nvalue = 1.491"] ;
142 -> 144 ;
145 [label="mse = 0.0\nsamples = 1\nvalue = 2.042"] ;
141 -> 145 ;
146 [label="X[1] <= 35.5\nmse = 0.107\nsamples = 4\nvalue = 0.876"] ;
140 -> 146 ;
147 [label="X[3] <= 1.211\nmse = 0.002\nsamples = 2\nvalue = 0.552"] ;
146 -> 147 ;
148 [label="mse = 0.0\nsamples = 1\nvalue = 0.505"] ;
147 -> 148 ;
149 [label="mse = -0.0\nsamples = 1\nvalue = 0.6"] ;
147 -> 149 ;
150 [label="X[0] <= 2.724\nmse = 0.003\nsamples = 2\nvalue = 1.199"] ;
146 -> 150 ;
151 [label="mse = 0.0\nsamples = 1\nvalue = 1.25"] ;
150 -> 151 ;
152 [label="mse = 0.0\nsamples = 1\nvalue = 1.148"] ;
150 -> 152 ;
153 [label="X[2] <= 2.872\nmse = 0.179\nsamples = 154\nvalue = 1.645"] ;
137 -> 153 ;
154 [label="X[7] <= -118.295\nmse = 0.238\nsamples = 10\nvalue = 2.183"] ;
153 -> 154 ;
155 [label="X[5] <= 3.475\nmse = 0.037\nsamples = 7\nvalue = 2.475"] ;
154 -> 155 ;
156 [label="X[0] <= 2.548\nmse = 0.0\nsamples = 3\nvalue = 2.292"] ;
155 -> 156 ;
157 [label="mse = 0.0\nsamples = 2\nvalue = 2.305"] ;
156 -> 157 ;
158 [label="mse = -0.0\nsamples = 1\nvalue = 2.265"] ;
156 -> 158 ;
159 [label="X[2] <= 2.824\nmse = 0.021\nsamples = 4\nvalue = 2.612"] ;
155 -> 159 ;
160 [label="mse = 0.008\nsamples = 3\nvalue = 2.542"] ;
159 -> 160 ;
161 [label="mse = 0.0\nsamples = 1\nvalue = 2.823"] ;
159 -> 161 ;
162 [label="X[7] <= -118.255\nmse = 0.044\nsamples = 3\nvalue = 1.501"] ;
154 -> 162 ;
163 [label="mse = 0.0\nsamples = 1\nvalue = 1.237"] ;
162 -> 163 ;
164 [label="X[7] <= -118.06\nmse = 0.014\nsamples = 2\nvalue = 1.634"] ;
162 -> 164 ;
165 [label="mse = 0.0\nsamples = 1\nvalue = 1.75"] ;
164 -> 165 ;
166 [label="mse = 0.0\nsamples = 1\nvalue = 1.517"] ;
164 -> 166 ;
167 [label="X[0] <= 2.648\nmse = 0.153\nsamples = 144\nvalue = 1.608"] ;
153 -> 167 ;
168 [label="X[2] <= 3.886\nmse = 0.117\nsamples = 96\nvalue = 1.523"] ;
167 -> 168 ;
169 [label="X[6] <= 34.11\nmse = 0.099\nsamples = 62\nvalue = 1.628"] ;
168 -> 169 ;
170 [label="mse = 0.056\nsamples = 47\nvalue = 1.528"] ;
169 -> 170 ;
171 [label="mse = 0.106\nsamples = 15\nvalue = 1.94"] ;
169 -> 171 ;
172 [label="X[7] <= -119.4\nmse = 0.092\nsamples = 34\nvalue = 1.331"] ;
168 -> 172 ;
173 [label="mse = 0.026\nsamples = 6\nvalue = 1.028"] ;
172 -> 173 ;
174 [label="mse = 0.082\nsamples = 28\nvalue = 1.396"] ;
172 -> 174 ;
175 [label="X[5] <= 3.367\nmse = 0.183\nsamples = 48\nvalue = 1.779"] ;
167 -> 175 ;
176 [label="X[2] <= 4.034\nmse = 0.102\nsamples = 13\nvalue = 2.035"] ;
175 -> 176 ;
177 [label="mse = 0.066\nsamples = 8\nvalue = 1.858"] ;
176 -> 177 ;
178 [label="mse = 0.029\nsamples = 5\nvalue = 2.32"] ;
176 -> 178 ;
179 [label="X[0] <= 3.071\nmse = 0.18\nsamples = 35\nvalue = 1.684"] ;
175 -> 179 ;
180 [label="mse = 0.09\nsamples = 31\nvalue = 1.612"] ;
179 -> 180 ;
181 [label="mse = 0.53\nsamples = 4\nvalue = 2.242"] ;
179 -> 181 ;
182 [label="X[0] <= 2.422\nmse = 0.354\nsamples = 1185\nvalue = 1.141"] ;
2 -> 182 ;
183 [label="X[5] <= 1.933\nmse = 0.269\nsamples = 595\nvalue = 0.962"] ;
182 -> 183 ;
184 [label="X[1] <= 30.0\nmse = 0.872\nsamples = 26\nvalue = 1.65"] ;
183 -> 184 ;
185 [label="X[0] <= 0.945\nmse = 0.47\nsamples = 25\nvalue = 1.521"] ;
184 -> 185 ;
186 [label="X[7] <= -116.53\nmse = 0.141\nsamples = 2\nvalue = 3.125"] ;
185 -> 186 ;
187 [label="mse = 0.0\nsamples = 1\nvalue = 3.5"] ;
186 -> 187 ;
188 [label="mse = 0.0\nsamples = 1\nvalue = 2.75"] ;
186 -> 188 ;
189 [label="X[3] <= 1.195\nmse = 0.256\nsamples = 23\nvalue = 1.381"] ;
185 -> 189 ;
190 [label="X[5] <= 1.479\nmse = 0.165\nsamples = 17\nvalue = 1.238"] ;
189 -> 190 ;
191 [label="X[3] <= 1.124\nmse = 0.004\nsamples = 2\nvalue = 0.739"] ;
190 -> 191 ;
192 [label="mse = 0.0\nsamples = 1\nvalue = 0.675"] ;
191 -> 192 ;
193 [label="mse = -0.0\nsamples = 1\nvalue = 0.803"] ;
191 -> 193 ;
194 [label="X[4] <= 1543.0\nmse = 0.149\nsamples = 15\nvalue = 1.305"] ;
190 -> 194 ;
195 [label="mse = 0.15\nsamples = 11\nvalue = 1.401"] ;
194 -> 195 ;
196 [label="mse = 0.053\nsamples = 4\nvalue = 1.041"] ;
194 -> 196 ;
197 [label="X[1] <= 17.5\nmse = 0.288\nsamples = 6\nvalue = 1.787"] ;
189 -> 197 ;
198 [label="X[6] <= 36.355\nmse = 0.045\nsamples = 2\nvalue = 1.17"] ;
197 -> 198 ;
199 [label="mse = 0.0\nsamples = 1\nvalue = 1.383"] ;
198 -> 199 ;
200 [label="mse = -0.0\nsamples = 1\nvalue = 0.958"] ;
198 -> 200 ;
201 [label="X[2] <= 6.736\nmse = 0.124\nsamples = 4\nvalue = 2.096"] ;
197 -> 201 ;
202 [label="mse = 0.022\nsamples = 3\nvalue = 2.285"] ;
201 -> 202 ;
203 [label="mse = -0.0\nsamples = 1\nvalue = 1.528"] ;
201 -> 203 ;
204 [label="mse = -0.0\nsamples = 1\nvalue = 4.889"] ;
184 -> 204 ;
205 [label="X[6] <= 34.66\nmse = 0.219\nsamples = 569\nvalue = 0.931"] ;
183 -> 205 ;
206 [label="X[7] <= -118.315\nmse = 0.288\nsamples = 183\nvalue = 1.102"] ;
205 -> 206 ;
207 [label="X[1] <= 41.5\nmse = 0.868\nsamples = 17\nvalue = 1.912"] ;
206 -> 207 ;
208 [label="X[3] <= 1.573\nmse = 0.891\nsamples = 7\nvalue = 2.7"] ;
207 -> 208 ;
209 [label="X[6] <= 34.63\nmse = 0.409\nsamples = 6\nvalue = 2.4"] ;
208 -> 209 ;
210 [label="mse = 0.198\nsamples = 5\nvalue = 2.621"] ;
209 -> 210 ;
211 [label="mse = -0.0\nsamples = 1\nvalue = 1.294"] ;
209 -> 211 ;
212 [label="mse = 0.0\nsamples = 1\nvalue = 4.5"] ;
208 -> 212 ;
213 [label="X[2] <= 4.995\nmse = 0.113\nsamples = 10\nvalue = 1.36"] ;
207 -> 213 ;
214 [label="X[1] <= 42.5\nmse = 0.028\nsamples = 9\nvalue = 1.261"] ;
213 -> 214 ;
215 [label="mse = 0.0\nsamples = 1\nvalue = 1.688"] ;
214 -> 215 ;
216 [label="mse = 0.006\nsamples = 8\nvalue = 1.208"] ;
214 -> 216 ;
217 [label="mse = -0.0\nsamples = 1\nvalue = 2.25"] ;
213 -> 217 ;
218 [label="X[7] <= -116.92\nmse = 0.155\nsamples = 166\nvalue = 1.019"] ;
206 -> 218 ;
219 [label="X[0] <= 1.729\nmse = 0.147\nsamples = 131\nvalue = 1.107"] ;
218 -> 219 ;
220 [label="X[5] <= 6.967\nmse = 0.048\nsamples = 48\nvalue = 0.952"] ;
219 -> 220 ;
221 [label="mse = 0.031\nsamples = 46\nvalue = 0.925"] ;
220 -> 221 ;
222 [label="mse = 0.001\nsamples = 2\nvalue = 1.588"] ;
220 -> 222 ;
223 [label="X[0] <= 1.838\nmse = 0.183\nsamples = 83\nvalue = 1.196"] ;
219 -> 223 ;
224 [label="mse = 0.548\nsamples = 6\nvalue = 1.731"] ;
223 -> 224 ;
225 [label="mse = 0.13\nsamples = 77\nvalue = 1.155"] ;
223 -> 225 ;
226 [label="X[0] <= 1.367\nmse = 0.048\nsamples = 35\nvalue = 0.691"] ;
218 -> 226 ;
227 [label="X[2] <= 6.377\nmse = 0.013\nsamples = 7\nvalue = 0.471"] ;
226 -> 227 ;
228 [label="mse = 0.007\nsamples = 4\nvalue = 0.542"] ;
227 -> 228 ;
229 [label="mse = 0.005\nsamples = 3\nvalue = 0.375"] ;
227 -> 229 ;
230 [label="X[2] <= 6.094\nmse = 0.041\nsamples = 28\nvalue = 0.746"] ;
226 -> 230 ;
231 [label="mse = 0.014\nsamples = 22\nvalue = 0.685"] ;
230 -> 231 ;
232 [label="mse = 0.076\nsamples = 6\nvalue = 0.972"] ;
230 -> 232 ;
233 [label="X[7] <= -119.88\nmse = 0.166\nsamples = 386\nvalue = 0.849"] ;
205 -> 233 ;
234 [label="X[3] <= 4.223\nmse = 0.198\nsamples = 271\nvalue = 0.941"] ;
233 -> 234 ;
235 [label="X[6] <= 39.005\nmse = 0.16\nsamples = 269\nvalue = 0.929"] ;
234 -> 235 ;
236 [label="X[7] <= -121.475\nmse = 0.186\nsamples = 172\nvalue = 1.016"] ;
235 -> 236 ;
237 [label="mse = 0.26\nsamples = 73\nvalue = 1.195"] ;
236 -> 237 ;
238 [label="mse = 0.091\nsamples = 99\nvalue = 0.885"] ;
236 -> 238 ;
239 [label="X[1] <= 17.5\nmse = 0.076\nsamples = 97\nvalue = 0.775"] ;
235 -> 239 ;
240 [label="mse = 0.148\nsamples = 22\nvalue = 0.966"] ;
239 -> 240 ;
241 [label="mse = 0.041\nsamples = 75\nvalue = 0.719"] ;
239 -> 241 ;
242 [label="X[5] <= 2.357\nmse = 2.633\nsamples = 2\nvalue = 2.578"] ;
234 -> 242 ;
243 [label="mse = 0.0\nsamples = 1\nvalue = 0.955"] ;
242 -> 243 ;
244 [label="mse = 0.0\nsamples = 1\nvalue = 4.2"] ;
242 -> 244 ;
245 [label="X[0] <= 1.983\nmse = 0.022\nsamples = 115\nvalue = 0.632"] ;
233 -> 245 ;
246 [label="X[3] <= 0.941\nmse = 0.007\nsamples = 60\nvalue = 0.564"] ;
245 -> 246 ;
247 [label="mse = 0.0\nsamples = 1\nvalue = 0.869"] ;
246 -> 247 ;
248 [label="X[5] <= 2.563\nmse = 0.005\nsamples = 59\nvalue = 0.558"] ;
246 -> 248 ;
249 [label="mse = 0.005\nsamples = 12\nvalue = 0.618"] ;
248 -> 249 ;
250 [label="mse = 0.004\nsamples = 47\nvalue = 0.543"] ;
248 -> 250 ;
251 [label="X[5] <= 2.333\nmse = 0.028\nsamples = 55\nvalue = 0.707"] ;
245 -> 251 ;
252 [label="X[3] <= 1.083\nmse = 0.012\nsamples = 9\nvalue = 0.895"] ;
251 -> 252 ;
253 [label="mse = 0.004\nsamples = 6\nvalue = 0.96"] ;
252 -> 253 ;
254 [label="mse = 0.003\nsamples = 3\nvalue = 0.764"] ;
252 -> 254 ;
255 [label="X[2] <= 5.731\nmse = 0.023\nsamples = 46\nvalue = 0.671"] ;
251 -> 255 ;
256 [label="mse = 0.007\nsamples = 36\nvalue = 0.629"] ;
255 -> 256 ;
257 [label="mse = 0.052\nsamples = 10\nvalue = 0.82"] ;
255 -> 257 ;
258 [label="X[5] <= 2.146\nmse = 0.375\nsamples = 590\nvalue = 1.321"] ;
182 -> 258 ;
259 [label="X[3] <= 0.883\nmse = 0.963\nsamples = 56\nvalue = 1.909"] ;
258 -> 259 ;
260 [label="mse = 0.0\nsamples = 1\nvalue = 4.75"] ;
259 -> 260 ;
261 [label="X[1] <= 18.5\nmse = 0.831\nsamples = 55\nvalue = 1.857"] ;
259 -> 261 ;
262 [label="X[2] <= 5.389\nmse = 0.743\nsamples = 24\nvalue = 1.501"] ;
261 -> 262 ;
263 [label="X[0] <= 2.655\nmse = 0.157\nsamples = 20\nvalue = 1.294"] ;
262 -> 263 ;
264 [label="X[6] <= 38.525\nmse = 0.127\nsamples = 4\nvalue = 1.699"] ;
263 -> 264 ;
265 [label="mse = 0.023\nsamples = 3\nvalue = 1.89"] ;
264 -> 265 ;
266 [label="mse = 0.0\nsamples = 1\nvalue = 1.125"] ;
264 -> 266 ;
267 [label="X[4] <= 1215.0\nmse = 0.114\nsamples = 16\nvalue = 1.193"] ;
263 -> 267 ;
268 [label="mse = 0.057\nsamples = 8\nvalue = 1.01"] ;
267 -> 268 ;
269 [label="mse = 0.104\nsamples = 8\nvalue = 1.376"] ;
267 -> 269 ;
270 [label="X[7] <= -118.77\nmse = 2.392\nsamples = 4\nvalue = 2.534"] ;
262 -> 270 ;
271 [label="mse = 0.0\nsamples = 1\nvalue = 5.0"] ;
270 -> 271 ;
272 [label="X[6] <= 33.69\nmse = 0.487\nsamples = 3\nvalue = 1.712"] ;
270 -> 272 ;
273 [label="mse = 0.0\nsamples = 1\nvalue = 2.688"] ;
272 -> 273 ;
274 [label="mse = 0.015\nsamples = 2\nvalue = 1.224"] ;
272 -> 274 ;
275 [label="X[6] <= 38.5\nmse = 0.726\nsamples = 31\nvalue = 2.133"] ;
261 -> 275 ;
276 [label="X[5] <= 1.898\nmse = 0.541\nsamples = 24\nvalue = 2.422"] ;
275 -> 276 ;
277 [label="X[0] <= 2.684\nmse = 0.268\nsamples = 6\nvalue = 3.2"] ;
276 -> 277 ;
278 [label="mse = 0.001\nsamples = 3\nvalue = 2.726"] ;
277 -> 278 ;
279 [label="mse = 0.087\nsamples = 3\nvalue = 3.673"] ;
277 -> 279 ;
280 [label="X[3] <= 0.996\nmse = 0.363\nsamples = 18\nvalue = 2.163"] ;
276 -> 280 ;
281 [label="mse = 0.005\nsamples = 2\nvalue = 0.989"] ;
280 -> 281 ;
282 [label="mse = 0.214\nsamples = 16\nvalue = 2.31"] ;
280 -> 282 ;
283 [label="X[0] <= 3.023\nmse = 0.089\nsamples = 7\nvalue = 1.141"] ;
275 -> 283 ;
284 [label="X[4] <= 308.5\nmse = 0.039\nsamples = 6\nvalue = 1.044"] ;
283 -> 284 ;
285 [label="mse = 0.0\nsamples = 1\nvalue = 0.675"] ;
284 -> 285 ;
286 [label="mse = 0.014\nsamples = 5\nvalue = 1.118"] ;
284 -> 286 ;
287 [label="mse = -0.0\nsamples = 1\nvalue = 1.719"] ;
283 -> 287 ;
288 [label="X[6] <= 34.665\nmse = 0.273\nsamples = 534\nvalue = 1.259"] ;
258 -> 288 ;
289 [label="X[7] <= -117.78\nmse = 0.29\nsamples = 178\nvalue = 1.499"] ;
288 -> 289 ;
290 [label="X[3] <= 0.919\nmse = 0.328\nsamples = 98\nvalue = 1.711"] ;
289 -> 290 ;
291 [label="mse = 0.0\nsamples = 1\nvalue = 4.5"] ;
290 -> 291 ;
292 [label="X[7] <= -118.44\nmse = 0.25\nsamples = 97\nvalue = 1.682"] ;
290 -> 292 ;
293 [label="X[2] <= 5.674\nmse = 0.722\nsamples = 11\nvalue = 2.317"] ;
292 -> 293 ;
294 [label="mse = 0.177\nsamples = 9\nvalue = 1.988"] ;
293 -> 294 ;
295 [label="mse = 0.491\nsamples = 2\nvalue = 3.799"] ;
293 -> 295 ;
296 [label="X[5] <= 2.411\nmse = 0.131\nsamples = 86\nvalue = 1.601"] ;
292 -> 296 ;
297 [label="mse = 0.073\nsamples = 4\nvalue = 2.322"] ;
296 -> 297 ;
298 [label="mse = 0.108\nsamples = 82\nvalue = 1.565"] ;
296 -> 298 ;
299 [label="X[6] <= 33.325\nmse = 0.122\nsamples = 80\nvalue = 1.24"] ;
289 -> 299 ;
300 [label="X[7] <= -117.125\nmse = 0.137\nsamples = 25\nvalue = 1.481"] ;
299 -> 300 ;
301 [label="X[3] <= 1.023\nmse = 0.094\nsamples = 9\nvalue = 1.796"] ;
300 -> 301 ;
302 [label="mse = 0.001\nsamples = 2\nvalue = 1.397"] ;
301 -> 302 ;
303 [label="mse = 0.061\nsamples = 7\nvalue = 1.91"] ;
301 -> 303 ;
304 [label="X[1] <= 10.0\nmse = 0.074\nsamples = 16\nvalue = 1.304"] ;
300 -> 304 ;
305 [label="mse = 0.0\nsamples = 2\nvalue = 0.863"] ;
304 -> 305 ;
306 [label="mse = 0.053\nsamples = 14\nvalue = 1.367"] ;
304 -> 306 ;
307 [label="X[7] <= -116.855\nmse = 0.077\nsamples = 55\nvalue = 1.131"] ;
299 -> 307 ;
308 [label="X[2] <= 6.242\nmse = 0.051\nsamples = 45\nvalue = 1.178"] ;
307 -> 308 ;
309 [label="mse = 0.045\nsamples = 42\nvalue = 1.156"] ;
308 -> 309 ;
310 [label="mse = 0.038\nsamples = 3\nvalue = 1.485"] ;
308 -> 310 ;
311 [label="X[2] <= 9.687\nmse = 0.141\nsamples = 10\nvalue = 0.92"] ;
307 -> 311 ;
312 [label="mse = 0.008\nsamples = 8\nvalue = 0.74"] ;
311 -> 312 ;
313 [label="mse = 0.019\nsamples = 2\nvalue = 1.642"] ;
311 -> 313 ;
314 [label="X[7] <= -121.755\nmse = 0.221\nsamples = 356\nvalue = 1.14"] ;
288 -> 314 ;
315 [label="X[6] <= 38.605\nmse = 0.333\nsamples = 118\nvalue = 1.39"] ;
314 -> 315 ;
316 [label="X[7] <= -122.375\nmse = 0.331\nsamples = 73\nvalue = 1.642"] ;
315 -> 316 ;
317 [label="X[7] <= -122.59\nmse = 0.516\nsamples = 15\nvalue = 2.213"] ;
316 -> 317 ;
318 [label="mse = 0.082\nsamples = 8\nvalue = 1.69"] ;
317 -> 318 ;
319 [label="mse = 0.342\nsamples = 7\nvalue = 2.81"] ;
317 -> 319 ;
320 [label="X[5] <= 2.562\nmse = 0.177\nsamples = 58\nvalue = 1.495"] ;
316 -> 320 ;
321 [label="mse = 0.148\nsamples = 19\nvalue = 1.815"] ;
320 -> 321 ;
322 [label="mse = 0.117\nsamples = 39\nvalue = 1.339"] ;
320 -> 322 ;
323 [label="X[6] <= 39.325\nmse = 0.067\nsamples = 45\nvalue = 0.982"] ;
315 -> 323 ;
324 [label="X[7] <= -122.93\nmse = 0.087\nsamples = 13\nvalue = 1.187"] ;
323 -> 324 ;
325 [label="mse = 0.048\nsamples = 6\nvalue = 1.418"] ;
324 -> 325 ;
326 [label="mse = 0.035\nsamples = 7\nvalue = 0.99"] ;
324 -> 326 ;
327 [label="X[5] <= 2.427\nmse = 0.034\nsamples = 32\nvalue = 0.898"] ;
323 -> 327 ;
328 [label="mse = 0.017\nsamples = 4\nvalue = 1.17"] ;
327 -> 328 ;
329 [label="mse = 0.025\nsamples = 28\nvalue = 0.859"] ;
327 -> 329 ;
330 [label="X[7] <= -120.39\nmse = 0.119\nsamples = 238\nvalue = 1.015"] ;
314 -> 330 ;
331 [label="X[6] <= 37.15\nmse = 0.126\nsamples = 152\nvalue = 1.121"] ;
330 -> 331 ;
332 [label="X[5] <= 3.21\nmse = 0.195\nsamples = 22\nvalue = 1.55"] ;
331 -> 332 ;
333 [label="mse = 0.158\nsamples = 12\nvalue = 1.827"] ;
332 -> 333 ;
334 [label="mse = 0.037\nsamples = 10\nvalue = 1.218"] ;
332 -> 334 ;
335 [label="X[6] <= 39.295\nmse = 0.078\nsamples = 130\nvalue = 1.048"] ;
331 -> 335 ;
336 [label="mse = 0.072\nsamples = 113\nvalue = 1.09"] ;
335 -> 336 ;
337 [label="mse = 0.029\nsamples = 17\nvalue = 0.774"] ;
335 -> 337 ;
338 [label="X[2] <= 5.982\nmse = 0.053\nsamples = 86\nvalue = 0.829"] ;
330 -> 338 ;
339 [label="X[4] <= 407.5\nmse = 0.039\nsamples = 68\nvalue = 0.784"] ;
338 -> 339 ;
340 [label="mse = 0.035\nsamples = 2\nvalue = 1.376"] ;
339 -> 340 ;
341 [label="mse = 0.028\nsamples = 66\nvalue = 0.766"] ;
339 -> 341 ;
342 [label="X[0] <= 2.639\nmse = 0.069\nsamples = 18\nvalue = 0.999"] ;
338 -> 342 ;
343 [label="mse = 0.004\nsamples = 2\nvalue = 0.463"] ;
342 -> 343 ;
344 [label="mse = 0.037\nsamples = 16\nvalue = 1.066"] ;
342 -> 344 ;
345 [label="X[5] <= 2.368\nmse = 0.787\nsamples = 1889\nvalue = 2.062"] ;
1 -> 345 ;
346 [label="X[6] <= 37.94\nmse = 1.209\nsamples = 430\nvalue = 2.806"] ;
345 -> 346 ;
347 [label="X[1] <= 16.5\nmse = 1.141\nsamples = 381\nvalue = 2.945"] ;
346 -> 347 ;
348 [label="X[4] <= 1089.5\nmse = 0.341\nsamples = 66\nvalue = 2.079"] ;
347 -> 348 ;
349 [label="X[5] <= 2.233\nmse = 0.187\nsamples = 22\nvalue = 1.825"] ;
348 -> 349 ;
350 [label="X[2] <= 4.672\nmse = 0.121\nsamples = 16\nvalue = 1.654"] ;
349 -> 350 ;
351 [label="X[2] <= 3.721\nmse = 0.005\nsamples = 6\nvalue = 1.38"] ;
350 -> 351 ;
352 [label="X[0] <= 3.378\nmse = 0.0\nsamples = 2\nvalue = 1.292"] ;
351 -> 352 ;
353 [label="mse = 0.0\nsamples = 1\nvalue = 1.292"] ;
352 -> 353 ;
354 [label="mse = 0.0\nsamples = 1\nvalue = 1.293"] ;
352 -> 354 ;
355 [label="X[7] <= -117.815\nmse = 0.002\nsamples = 4\nvalue = 1.424"] ;
351 -> 355 ;
356 [label="mse = 0.0\nsamples = 2\nvalue = 1.382"] ;
355 -> 356 ;
357 [label="mse = 0.0\nsamples = 2\nvalue = 1.465"] ;
355 -> 357 ;
358 [label="X[2] <= 5.487\nmse = 0.118\nsamples = 10\nvalue = 1.819"] ;
350 -> 358 ;
359 [label="X[5] <= 1.971\nmse = 0.095\nsamples = 7\nvalue = 1.963"] ;
358 -> 359 ;
360 [label="mse = 0.032\nsamples = 4\nvalue = 2.171"] ;
359 -> 360 ;
361 [label="mse = 0.044\nsamples = 3\nvalue = 1.686"] ;
359 -> 361 ;
362 [label="X[0] <= 3.456\nmse = 0.009\nsamples = 3\nvalue = 1.481"] ;
358 -> 362 ;
363 [label="mse = 0.0\nsamples = 1\nvalue = 1.6"] ;
362 -> 363 ;
364 [label="mse = 0.002\nsamples = 2\nvalue = 1.422"] ;
362 -> 364 ;
365 [label="X[1] <= 14.5\nmse = 0.078\nsamples = 6\nvalue = 2.281"] ;
349 -> 365 ;
366 [label="X[3] <= 6.705\nmse = 0.007\nsamples = 4\nvalue = 2.09"] ;
365 -> 366 ;
367 [label="X[3] <= 1.763\nmse = 0.002\nsamples = 3\nvalue = 2.048"] ;
366 -> 367 ;
368 [label="mse = 0.0\nsamples = 2\nvalue = 2.082"] ;
367 -> 368 ;
369 [label="mse = 0.0\nsamples = 1\nvalue = 1.981"] ;
367 -> 369 ;
370 [label="mse = -0.0\nsamples = 1\nvalue = 2.214"] ;
366 -> 370 ;
371 [label="X[0] <= 3.784\nmse = 0.0\nsamples = 2\nvalue = 2.665"] ;
365 -> 371 ;
372 [label="mse = 0.0\nsamples = 1\nvalue = 2.663"] ;
371 -> 372 ;
373 [label="mse = -0.0\nsamples = 1\nvalue = 2.667"] ;
371 -> 373 ;
374 [label="X[2] <= 6.115\nmse = 0.369\nsamples = 44\nvalue = 2.206"] ;
348 -> 374 ;
375 [label="X[5] <= 2.003\nmse = 0.318\nsamples = 40\nvalue = 2.12"] ;
374 -> 375 ;
376 [label="X[2] <= 3.85\nmse = 0.377\nsamples = 17\nvalue = 2.328"] ;
375 -> 376 ;
377 [label="X[5] <= 1.823\nmse = 0.236\nsamples = 5\nvalue = 1.821"] ;
376 -> 377 ;
378 [label="mse = 0.025\nsamples = 4\nvalue = 1.589"] ;
377 -> 378 ;
379 [label="mse = -0.0\nsamples = 1\nvalue = 2.75"] ;
377 -> 379 ;
380 [label="X[5] <= 1.603\nmse = 0.284\nsamples = 12\nvalue = 2.539"] ;
376 -> 380 ;
381 [label="mse = 0.0\nsamples = 1\nvalue = 3.75"] ;
380 -> 381 ;
382 [label="mse = 0.165\nsamples = 11\nvalue = 2.429"] ;
380 -> 382 ;
383 [label="X[4] <= 1216.5\nmse = 0.22\nsamples = 23\nvalue = 1.967"] ;
375 -> 383 ;
384 [label="X[1] <= 11.5\nmse = 0.119\nsamples = 3\nvalue = 2.587"] ;
383 -> 384 ;
385 [label="mse = 0.006\nsamples = 2\nvalue = 2.346"] ;
384 -> 385 ;
386 [label="mse = -0.0\nsamples = 1\nvalue = 3.067"] ;
384 -> 386 ;
387 [label="X[2] <= 4.765\nmse = 0.169\nsamples = 20\nvalue = 1.874"] ;
383 -> 387 ;
388 [label="mse = 0.141\nsamples = 7\nvalue = 2.128"] ;
387 -> 388 ;
389 [label="mse = 0.13\nsamples = 13\nvalue = 1.737"] ;
387 -> 389 ;
390 [label="X[0] <= 3.36\nmse = 0.068\nsamples = 4\nvalue = 3.062"] ;
374 -> 390 ;
391 [label="mse = 0.0\nsamples = 1\nvalue = 2.646"] ;
390 -> 391 ;
392 [label="X[3] <= 1.493\nmse = 0.013\nsamples = 3\nvalue = 3.201"] ;
390 -> 392 ;
393 [label="X[7] <= -119.825\nmse = 0.004\nsamples = 2\nvalue = 3.272"] ;
392 -> 393 ;
394 [label="mse = 0.0\nsamples = 1\nvalue = 3.208"] ;
393 -> 394 ;
395 [label="mse = 0.0\nsamples = 1\nvalue = 3.337"] ;
393 -> 395 ;
396 [label="mse = 0.0\nsamples = 1\nvalue = 3.058"] ;
392 -> 396 ;
397 [label="X[5] <= 1.921\nmse = 1.118\nsamples = 315\nvalue = 3.126"] ;
347 -> 397 ;
398 [label="X[0] <= 3.68\nmse = 1.168\nsamples = 92\nvalue = 3.731"] ;
397 -> 398 ;
399 [label="X[7] <= -117.9\nmse = 1.097\nsamples = 48\nvalue = 3.279"] ;
398 -> 399 ;
400 [label="X[0] <= 3.216\nmse = 0.827\nsamples = 38\nvalue = 3.567"] ;
399 -> 400 ;
401 [label="X[5] <= 1.874\nmse = 0.359\nsamples = 15\nvalue = 2.937"] ;
400 -> 401 ;
402 [label="mse = 0.156\nsamples = 11\nvalue = 2.668"] ;
401 -> 402 ;
403 [label="mse = 0.171\nsamples = 4\nvalue = 3.678"] ;
401 -> 403 ;
404 [label="X[5] <= 1.858\nmse = 0.705\nsamples = 23\nvalue = 3.978"] ;
400 -> 404 ;
405 [label="mse = 0.473\nsamples = 19\nvalue = 4.224"] ;
404 -> 405 ;
406 [label="mse = 0.158\nsamples = 4\nvalue = 2.811"] ;
404 -> 406 ;
407 [label="X[5] <= 1.75\nmse = 0.609\nsamples = 10\nvalue = 2.185"] ;
399 -> 407 ;
408 [label="X[5] <= 1.509\nmse = 0.113\nsamples = 3\nvalue = 1.183"] ;
407 -> 408 ;
409 [label="mse = 0.0\nsamples = 1\nvalue = 0.766"] ;
408 -> 409 ;
410 [label="mse = 0.04\nsamples = 2\nvalue = 1.391"] ;
408 -> 410 ;
411 [label="X[6] <= 32.78\nmse = 0.207\nsamples = 7\nvalue = 2.615"] ;
407 -> 411 ;
412 [label="mse = 0.0\nsamples = 1\nvalue = 1.67"] ;
411 -> 412 ;
413 [label="mse = 0.067\nsamples = 6\nvalue = 2.772"] ;
411 -> 413 ;
414 [label="X[3] <= 1.02\nmse = 0.782\nsamples = 44\nvalue = 4.223"] ;
398 -> 414 ;
415 [label="X[5] <= 1.625\nmse = 1.095\nsamples = 10\nvalue = 3.305"] ;
414 -> 415 ;
416 [label="X[6] <= 35.945\nmse = 0.084\nsamples = 2\nvalue = 4.71"] ;
415 -> 416 ;
417 [label="mse = 0.0\nsamples = 1\nvalue = 5.0"] ;
416 -> 417 ;
418 [label="mse = -0.0\nsamples = 1\nvalue = 4.42"] ;
416 -> 418 ;
419 [label="X[3] <= 0.937\nmse = 0.73\nsamples = 8\nvalue = 2.953"] ;
415 -> 419 ;
420 [label="mse = 0.003\nsamples = 2\nvalue = 4.051"] ;
419 -> 420 ;
421 [label="mse = 0.437\nsamples = 6\nvalue = 2.588"] ;
419 -> 421 ;
422 [label="X[2] <= 4.38\nmse = 0.369\nsamples = 34\nvalue = 4.493"] ;
414 -> 422 ;
423 [label="X[5] <= 1.689\nmse = 0.335\nsamples = 12\nvalue = 4.163"] ;
422 -> 423 ;
424 [label="mse = 0.173\nsamples = 7\nvalue = 4.473"] ;
423 -> 424 ;
425 [label="mse = 0.238\nsamples = 5\nvalue = 3.729"] ;
423 -> 425 ;
426 [label="X[4] <= 2203.0\nmse = 0.295\nsamples = 22\nvalue = 4.673"] ;
422 -> 426 ;
427 [label="mse = 0.143\nsamples = 19\nvalue = 4.793"] ;
426 -> 427 ;
428 [label="mse = 0.594\nsamples = 3\nvalue = 3.914"] ;
426 -> 428 ;
429 [label="X[0] <= 3.901\nmse = 0.885\nsamples = 223\nvalue = 2.877"] ;
397 -> 429 ;
430 [label="X[7] <= -122.435\nmse = 0.743\nsamples = 116\nvalue = 2.568"] ;
429 -> 430 ;
431 [label="X[3] <= 1.083\nmse = 0.579\nsamples = 5\nvalue = 4.253"] ;
430 -> 431 ;
432 [label="X[4] <= 1251.0\nmse = 0.039\nsamples = 3\nvalue = 4.861"] ;
431 -> 432 ;
433 [label="mse = 0.0\nsamples = 1\nvalue = 4.583"] ;
432 -> 433 ;
434 [label="mse = 0.0\nsamples = 2\nvalue = 5.0"] ;
432 -> 434 ;
435 [label="X[1] <= 39.5\nmse = 0.002\nsamples = 2\nvalue = 3.34"] ;
431 -> 435 ;
436 [label="mse = 0.0\nsamples = 1\nvalue = 3.38"] ;
435 -> 436 ;
437 [label="mse = 0.0\nsamples = 1\nvalue = 3.3"] ;
435 -> 437 ;
438 [label="X[2] <= 4.925\nmse = 0.617\nsamples = 111\nvalue = 2.492"] ;
430 -> 438 ;
439 [label="X[4] <= 491.5\nmse = 0.528\nsamples = 72\nvalue = 2.719"] ;
438 -> 439 ;
440 [label="mse = 0.421\nsamples = 8\nvalue = 1.986"] ;
439 -> 440 ;
441 [label="mse = 0.466\nsamples = 64\nvalue = 2.811"] ;
439 -> 441 ;
442 [label="X[4] <= 237.5\nmse = 0.511\nsamples = 39\nvalue = 2.073"] ;
438 -> 442 ;
443 [label="mse = 0.042\nsamples = 2\nvalue = 0.58"] ;
442 -> 443 ;
444 [label="mse = 0.409\nsamples = 37\nvalue = 2.154"] ;
442 -> 444 ;
445 [label="X[2] <= 4.735\nmse = 0.823\nsamples = 107\nvalue = 3.212"] ;
429 -> 445 ;
446 [label="X[5] <= 2.099\nmse = 0.465\nsamples = 24\nvalue = 2.582"] ;
445 -> 446 ;
447 [label="X[5] <= 1.936\nmse = 0.53\nsamples = 10\nvalue = 2.929"] ;
446 -> 447 ;
448 [label="mse = 0.136\nsamples = 2\nvalue = 1.774"] ;
447 -> 448 ;
449 [label="mse = 0.213\nsamples = 8\nvalue = 3.217"] ;
447 -> 449 ;
450 [label="X[0] <= 4.332\nmse = 0.271\nsamples = 14\nvalue = 2.334"] ;
446 -> 450 ;
451 [label="mse = 0.215\nsamples = 9\nvalue = 2.584"] ;
450 -> 451 ;
452 [label="mse = 0.057\nsamples = 5\nvalue = 1.886"] ;
450 -> 452 ;
453 [label="X[6] <= 37.615\nmse = 0.778\nsamples = 83\nvalue = 3.394"] ;
445 -> 453 ;
454 [label="X[7] <= -118.33\nmse = 0.706\nsamples = 62\nvalue = 3.578"] ;
453 -> 454 ;
455 [label="mse = 0.61\nsamples = 35\nvalue = 3.857"] ;
454 -> 455 ;
456 [label="mse = 0.599\nsamples = 27\nvalue = 3.216"] ;
454 -> 456 ;
457 [label="X[7] <= -122.415\nmse = 0.596\nsamples = 21\nvalue = 2.851"] ;
453 -> 457 ;
458 [label="mse = 0.195\nsamples = 6\nvalue = 3.878"] ;
457 -> 458 ;
459 [label="mse = 0.166\nsamples = 15\nvalue = 2.44"] ;
457 -> 459 ;
460 [label="X[3] <= 7.097\nmse = 0.428\nsamples = 49\nvalue = 1.726"] ;
346 -> 460 ;
461 [label="X[6] <= 38.67\nmse = 0.288\nsamples = 48\nvalue = 1.671"] ;
460 -> 461 ;
462 [label="X[7] <= -122.405\nmse = 0.216\nsamples = 37\nvalue = 1.854"] ;
461 -> 462 ;
463 [label="X[7] <= -122.555\nmse = 0.231\nsamples = 12\nvalue = 2.251"] ;
462 -> 463 ;
464 [label="X[5] <= 2.114\nmse = 0.06\nsamples = 8\nvalue = 2.009"] ;
463 -> 464 ;
465 [label="mse = 0.0\nsamples = 1\nvalue = 2.598"] ;
464 -> 465 ;
466 [label="X[2] <= 5.133\nmse = 0.011\nsamples = 7\nvalue = 1.925"] ;
464 -> 466 ;
467 [label="mse = 0.003\nsamples = 3\nvalue = 2.028"] ;
466 -> 467 ;
468 [label="mse = 0.003\nsamples = 4\nvalue = 1.847"] ;
466 -> 468 ;
469 [label="X[7] <= -122.495\nmse = 0.222\nsamples = 4\nvalue = 2.735"] ;
463 -> 469 ;
470 [label="X[6] <= 38.19\nmse = 0.044\nsamples = 2\nvalue = 3.166"] ;
469 -> 470 ;
471 [label="mse = 0.0\nsamples = 1\nvalue = 3.375"] ;
470 -> 471 ;
472 [label="mse = -0.0\nsamples = 1\nvalue = 2.957"] ;
470 -> 472 ;
473 [label="X[1] <= 28.5\nmse = 0.03\nsamples = 2\nvalue = 2.304"] ;
469 -> 473 ;
474 [label="mse = 0.0\nsamples = 1\nvalue = 2.132"] ;
473 -> 474 ;
475 [label="mse = -0.0\nsamples = 1\nvalue = 2.476"] ;
473 -> 475 ;
476 [label="X[4] <= 1008.0\nmse = 0.097\nsamples = 25\nvalue = 1.664"] ;
462 -> 476 ;
477 [label="X[2] <= 6.553\nmse = 0.056\nsamples = 13\nvalue = 1.501"] ;
476 -> 477 ;
478 [label="X[7] <= -121.375\nmse = 0.039\nsamples = 11\nvalue = 1.438"] ;
477 -> 478 ;
479 [label="mse = 0.022\nsamples = 9\nvalue = 1.503"] ;
478 -> 479 ;
480 [label="mse = 0.009\nsamples = 2\nvalue = 1.145"] ;
478 -> 480 ;
481 [label="X[7] <= -121.355\nmse = 0.005\nsamples = 2\nvalue = 1.85"] ;
477 -> 481 ;
482 [label="mse = 0.0\nsamples = 1\nvalue = 1.919"] ;
481 -> 482 ;
483 [label="mse = -0.0\nsamples = 1\nvalue = 1.781"] ;
481 -> 483 ;
484 [label="X[4] <= 1641.5\nmse = 0.082\nsamples = 12\nvalue = 1.839"] ;
476 -> 484 ;
485 [label="X[2] <= 5.56\nmse = 0.043\nsamples = 10\nvalue = 1.929"] ;
484 -> 485 ;
486 [label="mse = 0.037\nsamples = 4\nvalue = 2.096"] ;
485 -> 486 ;
487 [label="mse = 0.015\nsamples = 6\nvalue = 1.817"] ;
485 -> 487 ;
488 [label="X[5] <= 2.213\nmse = 0.038\nsamples = 2\nvalue = 1.392"] ;
484 -> 488 ;
489 [label="mse = 0.0\nsamples = 1\nvalue = 1.588"] ;
488 -> 489 ;
490 [label="mse = 0.0\nsamples = 1\nvalue = 1.196"] ;
488 -> 490 ;
491 [label="X[1] <= 22.5\nmse = 0.04\nsamples = 11\nvalue = 1.056"] ;
461 -> 491 ;
492 [label="X[5] <= 2.235\nmse = 0.023\nsamples = 5\nvalue = 1.219"] ;
491 -> 492 ;
493 [label="X[6] <= 38.815\nmse = 0.002\nsamples = 4\nvalue = 1.292"] ;
492 -> 493 ;
494 [label="X[7] <= -122.15\nmse = 0.0\nsamples = 2\nvalue = 1.329"] ;
493 -> 494 ;
495 [label="mse = 0.0\nsamples = 1\nvalue = 1.333"] ;
494 -> 495 ;
496 [label="mse = 0.0\nsamples = 1\nvalue = 1.325"] ;
494 -> 496 ;
497 [label="X[6] <= 38.985\nmse = 0.0\nsamples = 2\nvalue = 1.256"] ;
493 -> 497 ;
498 [label="mse = 0.0\nsamples = 1\nvalue = 1.234"] ;
497 -> 498 ;
499 [label="mse = 0.0\nsamples = 1\nvalue = 1.278"] ;
497 -> 499 ;
500 [label="mse = -0.0\nsamples = 1\nvalue = 0.924"] ;
492 -> 500 ;
501 [label="X[0] <= 3.812\nmse = 0.014\nsamples = 6\nvalue = 0.92"] ;
491 -> 501 ;
502 [label="X[3] <= 0.965\nmse = 0.007\nsamples = 5\nvalue = 0.96"] ;
501 -> 502 ;
503 [label="mse = 0.0\nsamples = 1\nvalue = 0.813"] ;
502 -> 503 ;
504 [label="X[5] <= 2.274\nmse = 0.002\nsamples = 4\nvalue = 0.997"] ;
502 -> 504 ;
505 [label="mse = 0.0\nsamples = 1\nvalue = 0.928"] ;
504 -> 505 ;
506 [label="mse = 0.001\nsamples = 3\nvalue = 1.02"] ;
504 -> 506 ;
507 [label="mse = 0.0\nsamples = 1\nvalue = 0.72"] ;
501 -> 507 ;
508 [label="mse = 0.0\nsamples = 1\nvalue = 4.375"] ;
460 -> 508 ;
509 [label="X[1] <= 42.5\nmse = 0.452\nsamples = 1459\nvalue = 1.843"] ;
345 -> 509 ;
510 [label="X[0] <= 3.797\nmse = 0.372\nsamples = 1287\nvalue = 1.776"] ;
509 -> 510 ;
511 [label="X[2] <= 4.946\nmse = 0.298\nsamples = 589\nvalue = 1.603"] ;
510 -> 511 ;
512 [label="X[5] <= 3.268\nmse = 0.255\nsamples = 227\nvalue = 1.815"] ;
511 -> 512 ;
513 [label="X[7] <= -118.28\nmse = 0.336\nsamples = 135\nvalue = 1.946"] ;
512 -> 513 ;
514 [label="X[6] <= 37.645\nmse = 0.433\nsamples = 73\nvalue = 2.112"] ;
513 -> 514 ;
515 [label="X[1] <= 25.5\nmse = 0.379\nsamples = 52\nvalue = 2.323"] ;
514 -> 515 ;
516 [label="mse = 0.1\nsamples = 23\nvalue = 2.008"] ;
515 -> 516 ;
517 [label="mse = 0.46\nsamples = 29\nvalue = 2.573"] ;
515 -> 517 ;
518 [label="X[7] <= -122.395\nmse = 0.182\nsamples = 21\nvalue = 1.589"] ;
514 -> 518 ;
519 [label="mse = 0.212\nsamples = 5\nvalue = 2.094"] ;
518 -> 519 ;
520 [label="mse = 0.068\nsamples = 16\nvalue = 1.431"] ;
518 -> 520 ;
521 [label="X[7] <= -117.66\nmse = 0.151\nsamples = 62\nvalue = 1.751"] ;
513 -> 521 ;
522 [label="X[7] <= -117.755\nmse = 0.124\nsamples = 50\nvalue = 1.84"] ;
521 -> 522 ;
523 [label="mse = 0.087\nsamples = 49\nvalue = 1.812"] ;
522 -> 523 ;
524 [label="mse = 0.0\nsamples = 1\nvalue = 3.226"] ;
522 -> 524 ;
525 [label="X[6] <= 33.385\nmse = 0.091\nsamples = 12\nvalue = 1.378"] ;
521 -> 525 ;
526 [label="mse = 0.066\nsamples = 7\nvalue = 1.565"] ;
525 -> 526 ;
527 [label="mse = 0.008\nsamples = 5\nvalue = 1.115"] ;
525 -> 527 ;
528 [label="X[1] <= 10.5\nmse = 0.074\nsamples = 92\nvalue = 1.624"] ;
512 -> 528 ;
529 [label="X[2] <= 3.03\nmse = 0.063\nsamples = 3\nvalue = 1.118"] ;
528 -> 529 ;
530 [label="mse = 0.0\nsamples = 1\nvalue = 1.462"] ;
529 -> 530 ;
531 [label="X[1] <= 6.5\nmse = 0.005\nsamples = 2\nvalue = 0.946"] ;
529 -> 531 ;
532 [label="mse = 0.0\nsamples = 1\nvalue = 0.875"] ;
531 -> 532 ;
533 [label="mse = 0.0\nsamples = 1\nvalue = 1.016"] ;
531 -> 533 ;
534 [label="X[6] <= 37.815\nmse = 0.065\nsamples = 89\nvalue = 1.641"] ;
528 -> 534 ;
535 [label="X[5] <= 4.239\nmse = 0.058\nsamples = 87\nvalue = 1.654"] ;
534 -> 535 ;
536 [label="mse = 0.058\nsamples = 60\nvalue = 1.711"] ;
535 -> 536 ;
537 [label="mse = 0.037\nsamples = 27\nvalue = 1.527"] ;
535 -> 537 ;
538 [label="X[4] <= 1982.0\nmse = 0.007\nsamples = 2\nvalue = 1.055"] ;
534 -> 538 ;
539 [label="mse = 0.0\nsamples = 1\nvalue = 0.973"] ;
538 -> 539 ;
540 [label="mse = 0.0\nsamples = 1\nvalue = 1.138"] ;
538 -> 540 ;
541 [label="X[7] <= -121.53\nmse = 0.279\nsamples = 362\nvalue = 1.47"] ;
511 -> 541 ;
542 [label="X[6] <= 37.93\nmse = 0.482\nsamples = 78\nvalue = 1.712"] ;
541 -> 542 ;
543 [label="X[7] <= -122.49\nmse = 0.499\nsamples = 22\nvalue = 2.36"] ;
542 -> 543 ;
544 [label="mse = 0.0\nsamples = 1\nvalue = 4.786"] ;
543 -> 544 ;
545 [label="X[3] <= 1.074\nmse = 0.229\nsamples = 21\nvalue = 2.245"] ;
543 -> 545 ;
546 [label="mse = 0.171\nsamples = 13\nvalue = 2.052"] ;
545 -> 546 ;
547 [label="mse = 0.167\nsamples = 8\nvalue = 2.557"] ;
545 -> 547 ;
548 [label="X[6] <= 38.86\nmse = 0.245\nsamples = 56\nvalue = 1.457"] ;
542 -> 548 ;
549 [label="X[7] <= -122.37\nmse = 0.216\nsamples = 37\nvalue = 1.674"] ;
548 -> 549 ;
550 [label="mse = 0.226\nsamples = 16\nvalue = 2.0"] ;
549 -> 550 ;
551 [label="mse = 0.065\nsamples = 21\nvalue = 1.426"] ;
549 -> 551 ;
552 [label="X[2] <= 5.771\nmse = 0.033\nsamples = 19\nvalue = 1.034"] ;
548 -> 552 ;
553 [label="mse = 0.019\nsamples = 5\nvalue = 1.242"] ;
552 -> 553 ;
554 [label="mse = 0.017\nsamples = 14\nvalue = 0.96"] ;
552 -> 554 ;
555 [label="X[6] <= 34.46\nmse = 0.203\nsamples = 284\nvalue = 1.403"] ;
541 -> 555 ;
556 [label="X[7] <= -117.81\nmse = 0.171\nsamples = 139\nvalue = 1.565"] ;
555 -> 556 ;
557 [label="X[5] <= 2.921\nmse = 0.109\nsamples = 57\nvalue = 1.869"] ;
556 -> 557 ;
558 [label="mse = 0.066\nsamples = 23\nvalue = 2.132"] ;
557 -> 558 ;
559 [label="mse = 0.06\nsamples = 34\nvalue = 1.691"] ;
557 -> 559 ;
560 [label="X[6] <= 33.715\nmse = 0.105\nsamples = 82\nvalue = 1.354"] ;
556 -> 560 ;
561 [label="mse = 0.106\nsamples = 38\nvalue = 1.528"] ;
560 -> 561 ;
562 [label="mse = 0.056\nsamples = 44\nvalue = 1.203"] ;
560 -> 562 ;
563 [label="X[7] <= -120.21\nmse = 0.183\nsamples = 145\nvalue = 1.248"] ;
555 -> 563 ;
564 [label="X[6] <= 36.925\nmse = 0.185\nsamples = 92\nvalue = 1.411"] ;
563 -> 564 ;
565 [label="mse = 0.114\nsamples = 11\nvalue = 1.836"] ;
564 -> 565 ;
566 [label="mse = 0.166\nsamples = 81\nvalue = 1.353"] ;
564 -> 566 ;
567 [label="X[2] <= 6.303\nmse = 0.055\nsamples = 53\nvalue = 0.965"] ;
563 -> 567 ;
568 [label="mse = 0.03\nsamples = 44\nvalue = 0.898"] ;
567 -> 568 ;
569 [label="mse = 0.053\nsamples = 9\nvalue = 1.291"] ;
567 -> 569 ;
570 [label="X[1] <= 16.5\nmse = 0.387\nsamples = 698\nvalue = 1.922"] ;
510 -> 570 ;
571 [label="X[3] <= 1.031\nmse = 0.289\nsamples = 195\nvalue = 1.673"] ;
570 -> 571 ;
572 [label="X[6] <= 38.725\nmse = 0.171\nsamples = 73\nvalue = 1.514"] ;
571 -> 572 ;
573 [label="X[0] <= 4.497\nmse = 0.145\nsamples = 69\nvalue = 1.472"] ;
572 -> 573 ;
574 [label="X[5] <= 2.801\nmse = 0.079\nsamples = 39\nvalue = 1.332"] ;
573 -> 574 ;
575 [label="mse = 0.044\nsamples = 7\nvalue = 1.59"] ;
574 -> 575 ;
576 [label="mse = 0.069\nsamples = 32\nvalue = 1.276"] ;
574 -> 576 ;
577 [label="X[2] <= 4.971\nmse = 0.172\nsamples = 30\nvalue = 1.654"] ;
573 -> 577 ;
578 [label="mse = 0.018\nsamples = 2\nvalue = 2.365"] ;
577 -> 578 ;
579 [label="mse = 0.144\nsamples = 28\nvalue = 1.604"] ;
577 -> 579 ;
580 [label="X[3] <= 1.024\nmse = 0.062\nsamples = 4\nvalue = 2.238"] ;
572 -> 580 ;
581 [label="X[2] <= 6.159\nmse = 0.009\nsamples = 3\nvalue = 2.103"] ;
580 -> 581 ;
582 [label="mse = 0.002\nsamples = 2\nvalue = 2.167"] ;
581 -> 582 ;
583 [label="mse = -0.0\nsamples = 1\nvalue = 1.975"] ;
581 -> 583 ;
584 [label="mse = 0.0\nsamples = 1\nvalue = 2.644"] ;
580 -> 584 ;
585 [label="X[3] <= 1.032\nmse = 0.336\nsamples = 122\nvalue = 1.768"] ;
571 -> 585 ;
586 [label="X[1] <= 10.0\nmse = 2.401\nsamples = 2\nvalue = 3.451"] ;
585 -> 586 ;
587 [label="mse = 0.0\nsamples = 1\nvalue = 1.901"] ;
586 -> 587 ;
588 [label="mse = 0.0\nsamples = 1\nvalue = 5.0"] ;
586 -> 588 ;
589 [label="X[6] <= 33.69\nmse = 0.254\nsamples = 120\nvalue = 1.74"] ;
585 -> 589 ;
590 [label="X[3] <= 1.819\nmse = 0.324\nsamples = 27\nvalue = 2.041"] ;
589 -> 590 ;
591 [label="mse = 0.218\nsamples = 26\nvalue = 2.107"] ;
590 -> 591 ;
592 [label="mse = 0.0\nsamples = 1\nvalue = 0.325"] ;
590 -> 592 ;
593 [label="X[2] <= 5.546\nmse = 0.199\nsamples = 93\nvalue = 1.652"] ;
589 -> 593 ;
594 [label="mse = 0.229\nsamples = 23\nvalue = 1.925"] ;
593 -> 594 ;
595 [label="mse = 0.157\nsamples = 70\nvalue = 1.563"] ;
593 -> 595 ;
596 [label="X[6] <= 37.77\nmse = 0.392\nsamples = 503\nvalue = 2.018"] ;
570 -> 596 ;
597 [label="X[7] <= -117.975\nmse = 0.391\nsamples = 426\nvalue = 2.086"] ;
596 -> 597 ;
598 [label="X[5] <= 2.852\nmse = 0.428\nsamples = 304\nvalue = 2.204"] ;
597 -> 598 ;
599 [label="X[2] <= 6.997\nmse = 0.558\nsamples = 128\nvalue = 2.425"] ;
598 -> 599 ;
600 [label="mse = 0.497\nsamples = 126\nvalue = 2.393"] ;
599 -> 600 ;
601 [label="mse = 0.323\nsamples = 2\nvalue = 4.432"] ;
599 -> 601 ;
602 [label="X[7] <= -122.155\nmse = 0.272\nsamples = 176\nvalue = 2.044"] ;
598 -> 602 ;
603 [label="mse = 0.198\nsamples = 10\nvalue = 2.688"] ;
602 -> 603 ;
604 [label="mse = 0.25\nsamples = 166\nvalue = 2.005"] ;
602 -> 604 ;
605 [label="X[7] <= -117.565\nmse = 0.178\nsamples = 122\nvalue = 1.79"] ;
597 -> 605 ;
606 [label="X[5] <= 3.164\nmse = 0.129\nsamples = 74\nvalue = 1.925"] ;
605 -> 606 ;
607 [label="mse = 0.155\nsamples = 33\nvalue = 2.13"] ;
606 -> 607 ;
608 [label="mse = 0.047\nsamples = 41\nvalue = 1.759"] ;
606 -> 608 ;
609 [label="X[5] <= 2.754\nmse = 0.182\nsamples = 48\nvalue = 1.583"] ;
605 -> 609 ;
610 [label="mse = 0.167\nsamples = 17\nvalue = 1.845"] ;
609 -> 610 ;
611 [label="mse = 0.132\nsamples = 31\nvalue = 1.44"] ;
609 -> 611 ;
612 [label="X[3] <= 1.008\nmse = 0.229\nsamples = 77\nvalue = 1.642"] ;
596 -> 612 ;
613 [label="X[7] <= -121.505\nmse = 0.075\nsamples = 31\nvalue = 1.413"] ;
612 -> 613 ;
614 [label="X[1] <= 38.0\nmse = 0.067\nsamples = 15\nvalue = 1.573"] ;
613 -> 614 ;
615 [label="mse = 0.045\nsamples = 14\nvalue = 1.531"] ;
614 -> 615 ;
616 [label="mse = 0.0\nsamples = 1\nvalue = 2.159"] ;
614 -> 616 ;
617 [label="X[7] <= -121.315\nmse = 0.037\nsamples = 16\nvalue = 1.263"] ;
613 -> 617 ;
618 [label="mse = 0.011\nsamples = 7\nvalue = 1.1"] ;
617 -> 618 ;
619 [label="mse = 0.021\nsamples = 9\nvalue = 1.39"] ;
617 -> 619 ;
620 [label="X[6] <= 39.0\nmse = 0.274\nsamples = 46\nvalue = 1.797"] ;
612 -> 620 ;
621 [label="X[7] <= -122.65\nmse = 0.227\nsamples = 40\nvalue = 1.897"] ;
620 -> 621 ;
622 [label="mse = 0.222\nsamples = 4\nvalue = 2.691"] ;
621 -> 622 ;
623 [label="mse = 0.15\nsamples = 36\nvalue = 1.809"] ;
621 -> 623 ;
624 [label="X[5] <= 2.822\nmse = 0.073\nsamples = 6\nvalue = 1.13"] ;
620 -> 624 ;
625 [label="mse = 0.001\nsamples = 2\nvalue = 1.507"] ;
624 -> 625 ;
626 [label="mse = 0.002\nsamples = 4\nvalue = 0.942"] ;
624 -> 626 ;
627 [label="X[7] <= -122.405\nmse = 0.768\nsamples = 172\nvalue = 2.343"] ;
509 -> 627 ;
628 [label="X[4] <= 3492.5\nmse = 0.408\nsamples = 46\nvalue = 2.916"] ;
627 -> 628 ;
629 [label="X[5] <= 2.915\nmse = 0.319\nsamples = 45\nvalue = 2.869"] ;
628 -> 629 ;
630 [label="X[6] <= 38.005\nmse = 0.311\nsamples = 25\nvalue = 3.107"] ;
629 -> 630 ;
631 [label="X[3] <= 1.128\nmse = 0.142\nsamples = 23\nvalue = 3.23"] ;
630 -> 631 ;
632 [label="X[2] <= 4.282\nmse = 0.112\nsamples = 21\nvalue = 3.291"] ;
631 -> 632 ;
633 [label="mse = 0.014\nsamples = 3\nvalue = 3.833"] ;
632 -> 633 ;
634 [label="mse = 0.071\nsamples = 18\nvalue = 3.2"] ;
632 -> 634 ;
635 [label="X[3] <= 1.205\nmse = 0.008\nsamples = 2\nvalue = 2.59"] ;
631 -> 635 ;
636 [label="mse = 0.0\nsamples = 1\nvalue = 2.681"] ;
635 -> 636 ;
637 [label="mse = 0.0\nsamples = 1\nvalue = 2.5"] ;
635 -> 637 ;
638 [label="X[0] <= 3.346\nmse = 0.095\nsamples = 2\nvalue = 1.697"] ;
630 -> 638 ;
639 [label="mse = 0.0\nsamples = 1\nvalue = 1.388"] ;
638 -> 639 ;
640 [label="mse = 0.0\nsamples = 1\nvalue = 2.006"] ;
638 -> 640 ;
641 [label="X[6] <= 37.77\nmse = 0.169\nsamples = 20\nvalue = 2.572"] ;
629 -> 641 ;
642 [label="X[4] <= 1446.0\nmse = 0.034\nsamples = 19\nvalue = 2.487"] ;
641 -> 642 ;
643 [label="X[1] <= 47.5\nmse = 0.026\nsamples = 12\nvalue = 2.563"] ;
642 -> 643 ;
644 [label="mse = 0.002\nsamples = 2\nvalue = 2.77"] ;
643 -> 644 ;
645 [label="mse = 0.02\nsamples = 10\nvalue = 2.522"] ;
643 -> 645 ;
646 [label="X[4] <= 1942.5\nmse = 0.022\nsamples = 7\nvalue = 2.357"] ;
642 -> 646 ;
647 [label="mse = 0.001\nsamples = 5\nvalue = 2.267"] ;
646 -> 647 ;
648 [label="mse = 0.004\nsamples = 2\nvalue = 2.584"] ;
646 -> 648 ;
649 [label="mse = 0.0\nsamples = 1\nvalue = 4.184"] ;
641 -> 649 ;
650 [label="mse = -0.0\nsamples = 1\nvalue = 5.0"] ;
628 -> 650 ;
651 [label="X[5] <= 2.52\nmse = 0.736\nsamples = 126\nvalue = 2.134"] ;
627 -> 651 ;
652 [label="X[4] <= 787.5\nmse = 0.568\nsamples = 28\nvalue = 2.756"] ;
651 -> 652 ;
653 [label="X[4] <= 699.5\nmse = 0.545\nsamples = 14\nvalue = 3.162"] ;
652 -> 653 ;
654 [label="X[4] <= 482.0\nmse = 0.345\nsamples = 11\nvalue = 2.904"] ;
653 -> 654 ;
655 [label="X[7] <= -120.1\nmse = 0.087\nsamples = 3\nvalue = 3.713"] ;
654 -> 655 ;
656 [label="mse = 0.023\nsamples = 2\nvalue = 3.902"] ;
655 -> 656 ;
657 [label="mse = -0.0\nsamples = 1\nvalue = 3.336"] ;
655 -> 657 ;
658 [label="X[7] <= -118.325\nmse = 0.104\nsamples = 8\nvalue = 2.6"] ;
654 -> 658 ;
659 [label="mse = 0.037\nsamples = 6\nvalue = 2.447"] ;
658 -> 659 ;
660 [label="mse = 0.024\nsamples = 2\nvalue = 3.06"] ;
658 -> 660 ;
661 [label="X[2] <= 5.597\nmse = 0.137\nsamples = 3\nvalue = 4.108"] ;
653 -> 661 ;
662 [label="X[5] <= 2.479\nmse = 0.002\nsamples = 2\nvalue = 4.368"] ;
661 -> 662 ;
663 [label="mse = 0.0\nsamples = 1\nvalue = 4.328"] ;
662 -> 663 ;
664 [label="mse = 0.0\nsamples = 1\nvalue = 4.409"] ;
662 -> 664 ;
665 [label="mse = -0.0\nsamples = 1\nvalue = 3.586"] ;
661 -> 665 ;
666 [label="X[0] <= 3.822\nmse = 0.262\nsamples = 14\nvalue = 2.351"] ;
652 -> 666 ;
667 [label="X[4] <= 1497.5\nmse = 0.092\nsamples = 8\nvalue = 2.083"] ;
666 -> 667 ;
668 [label="X[6] <= 37.34\nmse = 0.031\nsamples = 7\nvalue = 2.179"] ;
667 -> 668 ;
669 [label="mse = 0.01\nsamples = 5\nvalue = 2.271"] ;
668 -> 669 ;
670 [label="mse = 0.013\nsamples = 2\nvalue = 1.95"] ;
668 -> 670 ;
671 [label="mse = 0.0\nsamples = 1\nvalue = 1.414"] ;
667 -> 671 ;
672 [label="X[5] <= 2.478\nmse = 0.268\nsamples = 6\nvalue = 2.707"] ;
666 -> 672 ;
673 [label="X[5] <= 2.425\nmse = 0.223\nsamples = 4\nvalue = 2.951"] ;
672 -> 673 ;
674 [label="mse = 0.069\nsamples = 2\nvalue = 2.52"] ;
673 -> 674 ;
675 [label="mse = 0.006\nsamples = 2\nvalue = 3.382"] ;
673 -> 675 ;
676 [label="X[5] <= 2.513\nmse = 0.001\nsamples = 2\nvalue = 2.218"] ;
672 -> 676 ;
677 [label="mse = 0.0\nsamples = 1\nvalue = 2.246"] ;
676 -> 677 ;
678 [label="mse = 0.0\nsamples = 1\nvalue = 2.191"] ;
676 -> 678 ;
679 [label="X[0] <= 4.526\nmse = 0.642\nsamples = 98\nvalue = 1.956"] ;
651 -> 679 ;
680 [label="X[6] <= 37.74\nmse = 0.5\nsamples = 91\nvalue = 1.872"] ;
679 -> 680 ;
681 [label="X[6] <= 33.975\nmse = 0.501\nsamples = 75\nvalue = 1.972"] ;
680 -> 681 ;
682 [label="X[2] <= 5.525\nmse = 0.051\nsamples = 18\nvalue = 1.633"] ;
681 -> 682 ;
683 [label="mse = 0.028\nsamples = 15\nvalue = 1.704"] ;
682 -> 683 ;
684 [label="mse = 0.015\nsamples = 3\nvalue = 1.281"] ;
682 -> 684 ;
685 [label="X[7] <= -117.665\nmse = 0.596\nsamples = 57\nvalue = 2.079"] ;
681 -> 685 ;
686 [label="mse = 0.567\nsamples = 55\nvalue = 2.121"] ;
685 -> 686 ;
687 [label="mse = 0.003\nsamples = 2\nvalue = 0.917"] ;
685 -> 687 ;
688 [label="X[4] <= 381.0\nmse = 0.224\nsamples = 16\nvalue = 1.401"] ;
680 -> 688 ;
689 [label="X[7] <= -121.225\nmse = 0.004\nsamples = 2\nvalue = 0.746"] ;
688 -> 689 ;
690 [label="mse = 0.0\nsamples = 1\nvalue = 0.806"] ;
689 -> 690 ;
691 [label="mse = 0.0\nsamples = 1\nvalue = 0.686"] ;
689 -> 691 ;
692 [label="X[0] <= 3.941\nmse = 0.185\nsamples = 14\nvalue = 1.495"] ;
688 -> 692 ;
693 [label="mse = 0.134\nsamples = 11\nvalue = 1.361"] ;
692 -> 693 ;
694 [label="mse = 0.071\nsamples = 3\nvalue = 1.983"] ;
692 -> 694 ;
695 [label="X[0] <= 4.706\nmse = 1.18\nsamples = 7\nvalue = 3.058"] ;
679 -> 695 ;
696 [label="X[1] <= 47.0\nmse = 0.379\nsamples = 3\nvalue = 4.174"] ;
695 -> 696 ;
697 [label="X[7] <= -118.425\nmse = 0.057\nsamples = 2\nvalue = 3.762"] ;
696 -> 697 ;
698 [label="mse = 0.0\nsamples = 1\nvalue = 4.0"] ;
697 -> 698 ;
699 [label="mse = 0.0\nsamples = 1\nvalue = 3.523"] ;
697 -> 699 ;
700 [label="mse = -0.0\nsamples = 1\nvalue = 5.0"] ;
696 -> 700 ;
701 [label="X[3] <= 1.068\nmse = 0.144\nsamples = 4\nvalue = 2.22"] ;
695 -> 701 ;
702 [label="mse = 0.0\nsamples = 1\nvalue = 2.777"] ;
701 -> 702 ;
703 [label="X[2] <= 6.341\nmse = 0.055\nsamples = 3\nvalue = 2.035"] ;
701 -> 703 ;
704 [label="mse = 0.001\nsamples = 2\nvalue = 2.2"] ;
703 -> 704 ;
705 [label="mse = 0.0\nsamples = 1\nvalue = 1.705"] ;
703 -> 705 ;
706 [label="X[0] <= 6.544\nmse = 1.221\nsamples = 1128\nvalue = 3.195"] ;
0 -> 706 [labeldistance=2.5, labelangle=-45, headlabel="False"] ;
707 [label="X[5] <= 2.583\nmse = 0.847\nsamples = 741\nvalue = 2.768"] ;
706 -> 707 ;
708 [label="X[1] <= 19.5\nmse = 1.027\nsamples = 218\nvalue = 3.44"] ;
707 -> 708 ;
709 [label="X[0] <= 5.63\nmse = 0.649\nsamples = 68\nvalue = 2.713"] ;
708 -> 709 ;
710 [label="X[7] <= -118.255\nmse = 0.311\nsamples = 41\nvalue = 2.405"] ;
709 -> 710 ;
711 [label="X[7] <= -121.02\nmse = 0.301\nsamples = 18\nvalue = 2.704"] ;
710 -> 711 ;
712 [label="X[1] <= 9.5\nmse = 0.184\nsamples = 12\nvalue = 2.454"] ;
711 -> 712 ;
713 [label="X[6] <= 37.755\nmse = 0.017\nsamples = 4\nvalue = 1.96"] ;
712 -> 713 ;
714 [label="X[6] <= 37.385\nmse = 0.0\nsamples = 2\nvalue = 1.832"] ;
713 -> 714 ;
715 [label="mse = 0.0\nsamples = 1\nvalue = 1.848"] ;
714 -> 715 ;
716 [label="mse = -0.0\nsamples = 1\nvalue = 1.817"] ;
714 -> 716 ;
717 [label="X[3] <= 1.061\nmse = 0.002\nsamples = 2\nvalue = 2.088"] ;
713 -> 717 ;
718 [label="mse = 0.0\nsamples = 1\nvalue = 2.042"] ;
717 -> 718 ;
719 [label="mse = -0.0\nsamples = 1\nvalue = 2.133"] ;
717 -> 719 ;
720 [label="X[0] <= 5.128\nmse = 0.085\nsamples = 8\nvalue = 2.701"] ;
712 -> 720 ;
721 [label="X[3] <= 1.057\nmse = 0.016\nsamples = 4\nvalue = 2.912"] ;
720 -> 721 ;
722 [label="mse = 0.003\nsamples = 3\nvalue = 2.979"] ;
721 -> 722 ;
723 [label="mse = -0.0\nsamples = 1\nvalue = 2.711"] ;
721 -> 723 ;
724 [label="X[4] <= 653.0\nmse = 0.064\nsamples = 4\nvalue = 2.49"] ;
720 -> 724 ;
725 [label="mse = 0.0\nsamples = 1\nvalue = 2.905"] ;
724 -> 725 ;
726 [label="mse = 0.01\nsamples = 3\nvalue = 2.352"] ;
724 -> 726 ;
727 [label="X[3] <= 1.081\nmse = 0.16\nsamples = 6\nvalue = 3.204"] ;
711 -> 727 ;
728 [label="X[0] <= 5.429\nmse = 0.048\nsamples = 4\nvalue = 2.954"] ;
727 -> 728 ;
729 [label="X[4] <= 1330.5\nmse = 0.0\nsamples = 2\nvalue = 3.157"] ;
728 -> 729 ;
730 [label="mse = 0.0\nsamples = 1\nvalue = 3.177"] ;
729 -> 730 ;
731 [label="mse = 0.0\nsamples = 1\nvalue = 3.138"] ;
729 -> 731 ;
732 [label="X[5] <= 2.209\nmse = 0.013\nsamples = 2\nvalue = 2.751"] ;
728 -> 732 ;
733 [label="mse = 0.0\nsamples = 1\nvalue = 2.864"] ;
732 -> 733 ;
734 [label="mse = -0.0\nsamples = 1\nvalue = 2.638"] ;
732 -> 734 ;
735 [label="X[7] <= -119.25\nmse = 0.011\nsamples = 2\nvalue = 3.704"] ;
727 -> 735 ;
736 [label="mse = 0.0\nsamples = 1\nvalue = 3.6"] ;
735 -> 736 ;
737 [label="mse = 0.0\nsamples = 1\nvalue = 3.808"] ;
735 -> 737 ;
738 [label="X[4] <= 740.5\nmse = 0.193\nsamples = 23\nvalue = 2.17"] ;
710 -> 738 ;
739 [label="X[5] <= 2.128\nmse = 0.072\nsamples = 9\nvalue = 1.867"] ;
738 -> 739 ;
740 [label="X[4] <= 595.5\nmse = 0.049\nsamples = 6\nvalue = 2.001"] ;
739 -> 740 ;
741 [label="X[2] <= 7.474\nmse = 0.008\nsamples = 3\nvalue = 2.187"] ;
740 -> 741 ;
742 [label="mse = 0.001\nsamples = 2\nvalue = 2.128"] ;
741 -> 742 ;
743 [label="mse = -0.0\nsamples = 1\nvalue = 2.307"] ;
741 -> 743 ;
744 [label="X[6] <= 33.795\nmse = 0.02\nsamples = 3\nvalue = 1.814"] ;
740 -> 744 ;
745 [label="mse = 0.001\nsamples = 2\nvalue = 1.912"] ;
744 -> 745 ;
746 [label="mse = -0.0\nsamples = 1\nvalue = 1.618"] ;
744 -> 746 ;
747 [label="X[4] <= 239.0\nmse = 0.013\nsamples = 3\nvalue = 1.6"] ;
739 -> 747 ;
748 [label="mse = 0.0\nsamples = 1\nvalue = 1.76"] ;
747 -> 748 ;
749 [label="X[4] <= 254.5\nmse = 0.0\nsamples = 2\nvalue = 1.52"] ;
747 -> 749 ;
750 [label="mse = 0.0\nsamples = 1\nvalue = 1.5"] ;
749 -> 750 ;
751 [label="mse = 0.0\nsamples = 1\nvalue = 1.54"] ;
749 -> 751 ;
752 [label="X[7] <= -118.13\nmse = 0.173\nsamples = 14\nvalue = 2.365"] ;
738 -> 752 ;
753 [label="X[3] <= 1.057\nmse = 0.002\nsamples = 2\nvalue = 1.708"] ;
752 -> 753 ;
754 [label="mse = 0.0\nsamples = 1\nvalue = 1.75"] ;
753 -> 754 ;
755 [label="mse = 0.0\nsamples = 1\nvalue = 1.667"] ;
753 -> 755 ;
756 [label="X[6] <= 33.91\nmse = 0.118\nsamples = 12\nvalue = 2.475"] ;
752 -> 756 ;
757 [label="X[4] <= 829.5\nmse = 0.092\nsamples = 11\nvalue = 2.419"] ;
756 -> 757 ;
758 [label="mse = 0.02\nsamples = 2\nvalue = 2.858"] ;
757 -> 758 ;
759 [label="mse = 0.055\nsamples = 9\nvalue = 2.321"] ;
757 -> 759 ;
760 [label="mse = -0.0\nsamples = 1\nvalue = 3.088"] ;
756 -> 760 ;
761 [label="X[1] <= 10.0\nmse = 0.8\nsamples = 27\nvalue = 3.18"] ;
709 -> 761 ;
762 [label="X[1] <= 7.5\nmse = 0.272\nsamples = 10\nvalue = 2.655"] ;
761 -> 762 ;
763 [label="X[2] <= 5.633\nmse = 0.065\nsamples = 8\nvalue = 2.889"] ;
762 -> 763 ;
764 [label="mse = 0.0\nsamples = 1\nvalue = 2.4"] ;
763 -> 764 ;
765 [label="X[1] <= 6.5\nmse = 0.036\nsamples = 7\nvalue = 2.959"] ;
763 -> 765 ;
766 [label="X[0] <= 6.055\nmse = 0.015\nsamples = 5\nvalue = 3.05"] ;
765 -> 766 ;
767 [label="mse = 0.001\nsamples = 2\nvalue = 2.916"] ;
766 -> 767 ;
768 [label="mse = 0.004\nsamples = 3\nvalue = 3.139"] ;
766 -> 768 ;
769 [label="X[7] <= -117.38\nmse = 0.016\nsamples = 2\nvalue = 2.731"] ;
765 -> 769 ;
770 [label="mse = 0.0\nsamples = 1\nvalue = 2.856"] ;
769 -> 770 ;
771 [label="mse = 0.0\nsamples = 1\nvalue = 2.606"] ;
769 -> 771 ;
772 [label="X[2] <= 5.903\nmse = 0.003\nsamples = 2\nvalue = 1.719"] ;
762 -> 772 ;
773 [label="mse = 0.0\nsamples = 1\nvalue = 1.663"] ;
772 -> 773 ;
774 [label="mse = -0.0\nsamples = 1\nvalue = 1.774"] ;
772 -> 774 ;
775 [label="X[1] <= 13.5\nmse = 0.852\nsamples = 17\nvalue = 3.489"] ;
761 -> 775 ;
776 [label="X[7] <= -120.34\nmse = 0.315\nsamples = 5\nvalue = 4.42"] ;
775 -> 776 ;
777 [label="X[4] <= 3014.5\nmse = 0.08\nsamples = 2\nvalue = 3.811"] ;
776 -> 777 ;
778 [label="mse = 0.0\nsamples = 1\nvalue = 4.093"] ;
777 -> 778 ;
779 [label="mse = -0.0\nsamples = 1\nvalue = 3.529"] ;
777 -> 779 ;
780 [label="X[7] <= -118.22\nmse = 0.061\nsamples = 3\nvalue = 4.826"] ;
776 -> 780 ;
781 [label="mse = 0.0\nsamples = 2\nvalue = 5.0"] ;
780 -> 781 ;
782 [label="mse = -0.0\nsamples = 1\nvalue = 4.477"] ;
780 -> 782 ;
783 [label="X[4] <= 2413.0\nmse = 0.565\nsamples = 12\nvalue = 3.102"] ;
775 -> 783 ;
784 [label="X[4] <= 1359.0\nmse = 0.158\nsamples = 10\nvalue = 2.811"] ;
783 -> 784 ;
785 [label="X[3] <= 1.052\nmse = 0.105\nsamples = 6\nvalue = 2.569"] ;
784 -> 785 ;
786 [label="mse = 0.02\nsamples = 3\nvalue = 2.856"] ;
785 -> 786 ;
787 [label="mse = 0.024\nsamples = 3\nvalue = 2.281"] ;
785 -> 787 ;
788 [label="X[3] <= 1.119\nmse = 0.018\nsamples = 4\nvalue = 3.174"] ;
784 -> 788 ;
789 [label="mse = 0.002\nsamples = 3\nvalue = 3.101"] ;
788 -> 789 ;
790 [label="mse = -0.0\nsamples = 1\nvalue = 3.391"] ;
788 -> 790 ;
791 [label="X[4] <= 2997.0\nmse = 0.064\nsamples = 2\nvalue = 4.556"] ;
783 -> 791 ;
792 [label="mse = 0.0\nsamples = 1\nvalue = 4.808"] ;
791 -> 792 ;
793 [label="mse = -0.0\nsamples = 1\nvalue = 4.303"] ;
791 -> 793 ;
794 [label="X[5] <= 2.12\nmse = 0.85\nsamples = 150\nvalue = 3.769"] ;
708 -> 794 ;
795 [label="X[4] <= 405.5\nmse = 0.42\nsamples = 34\nvalue = 4.534"] ;
794 -> 795 ;
796 [label="X[3] <= 1.025\nmse = 0.007\nsamples = 4\nvalue = 3.465"] ;
795 -> 796 ;
797 [label="X[4] <= 348.0\nmse = 0.001\nsamples = 2\nvalue = 3.536"] ;
796 -> 797 ;
798 [label="mse = 0.0\nsamples = 1\nvalue = 3.5"] ;
797 -> 798 ;
799 [label="mse = 0.0\nsamples = 1\nvalue = 3.572"] ;
797 -> 799 ;
800 [label="X[5] <= 2.026\nmse = 0.002\nsamples = 2\nvalue = 3.395"] ;
796 -> 800 ;
801 [label="mse = 0.0\nsamples = 1\nvalue = 3.44"] ;
800 -> 801 ;
802 [label="mse = 0.0\nsamples = 1\nvalue = 3.35"] ;
800 -> 802 ;
803 [label="X[5] <= 1.884\nmse = 0.302\nsamples = 30\nvalue = 4.676"] ;
795 -> 803 ;
804 [label="X[0] <= 5.008\nmse = 0.014\nsamples = 17\nvalue = 4.947"] ;
803 -> 804 ;
805 [label="mse = 0.0\nsamples = 1\nvalue = 4.6"] ;
804 -> 805 ;
806 [label="X[5] <= 1.832\nmse = 0.007\nsamples = 16\nvalue = 4.968"] ;
804 -> 806 ;
807 [label="X[3] <= 1.05\nmse = 0.0\nsamples = 12\nvalue = 5.0"] ;
806 -> 807 ;
808 [label="mse = 0.0\nsamples = 1\nvalue = 5.0"] ;
807 -> 808 ;
809 [label="mse = -0.0\nsamples = 11\nvalue = 5.0"] ;
807 -> 809 ;
810 [label="X[4] <= 635.5\nmse = 0.017\nsamples = 4\nvalue = 4.873"] ;
806 -> 810 ;
811 [label="mse = 0.0\nsamples = 2\nvalue = 5.0"] ;
810 -> 811 ;
812 [label="mse = 0.002\nsamples = 2\nvalue = 4.746"] ;
810 -> 812 ;
813 [label="X[0] <= 5.155\nmse = 0.458\nsamples = 13\nvalue = 4.322"] ;
803 -> 813 ;
814 [label="X[4] <= 754.5\nmse = 0.049\nsamples = 5\nvalue = 3.61"] ;
813 -> 814 ;
815 [label="mse = 0.0\nsamples = 1\nvalue = 3.218"] ;
814 -> 815 ;
816 [label="X[4] <= 2453.5\nmse = 0.014\nsamples = 4\nvalue = 3.708"] ;
814 -> 816 ;
817 [label="mse = 0.006\nsamples = 3\nvalue = 3.652"] ;
816 -> 817 ;
818 [label="mse = -0.0\nsamples = 1\nvalue = 3.875"] ;
816 -> 818 ;
819 [label="X[5] <= 1.916\nmse = 0.198\nsamples = 8\nvalue = 4.767"] ;
813 -> 819 ;
820 [label="mse = 0.0\nsamples = 1\nvalue = 3.691"] ;
819 -> 820 ;
821 [label="X[0] <= 5.195\nmse = 0.037\nsamples = 7\nvalue = 4.921"] ;
819 -> 821 ;
822 [label="mse = 0.0\nsamples = 1\nvalue = 4.447"] ;
821 -> 822 ;
823 [label="mse = 0.0\nsamples = 6\nvalue = 5.0"] ;
821 -> 823 ;
824 [label="X[6] <= 37.61\nmse = 0.754\nsamples = 116\nvalue = 3.545"] ;
794 -> 824 ;
825 [label="X[0] <= 6.123\nmse = 0.706\nsamples = 89\nvalue = 3.688"] ;
824 -> 825 ;
826 [label="X[4] <= 532.5\nmse = 0.633\nsamples = 72\nvalue = 3.556"] ;
825 -> 826 ;
827 [label="X[0] <= 5.547\nmse = 0.157\nsamples = 9\nvalue = 2.638"] ;
826 -> 827 ;
828 [label="X[1] <= 35.5\nmse = 0.02\nsamples = 5\nvalue = 2.343"] ;
827 -> 828 ;
829 [label="mse = 0.004\nsamples = 3\nvalue = 2.234"] ;
828 -> 829 ;
830 [label="mse = 0.0\nsamples = 2\nvalue = 2.507"] ;
828 -> 830 ;
831 [label="X[6] <= 34.0\nmse = 0.084\nsamples = 4\nvalue = 3.006"] ;
827 -> 831 ;
832 [label="mse = 0.0\nsamples = 2\nvalue = 2.738"] ;
831 -> 832 ;
833 [label="mse = 0.024\nsamples = 2\nvalue = 3.274"] ;
831 -> 833 ;
834 [label="X[5] <= 2.52\nmse = 0.564\nsamples = 63\nvalue = 3.687"] ;
826 -> 834 ;
835 [label="X[2] <= 5.581\nmse = 0.44\nsamples = 52\nvalue = 3.816"] ;
834 -> 835 ;
836 [label="mse = 0.213\nsamples = 20\nvalue = 3.411"] ;
835 -> 836 ;
837 [label="mse = 0.416\nsamples = 32\nvalue = 4.069"] ;
835 -> 837 ;
838 [label="X[3] <= 1.018\nmse = 0.699\nsamples = 11\nvalue = 3.079"] ;
834 -> 838 ;
839 [label="mse = 0.488\nsamples = 6\nvalue = 3.605"] ;
838 -> 839 ;
840 [label="mse = 0.224\nsamples = 5\nvalue = 2.449"] ;
838 -> 840 ;
841 [label="X[2] <= 6.281\nmse = 0.63\nsamples = 17\nvalue = 4.247"] ;
825 -> 841 ;
842 [label="X[5] <= 2.45\nmse = 0.112\nsamples = 9\nvalue = 4.565"] ;
841 -> 842 ;
843 [label="X[0] <= 6.462\nmse = 0.084\nsamples = 7\nvalue = 4.451"] ;
842 -> 843 ;
844 [label="mse = 0.039\nsamples = 6\nvalue = 4.359"] ;
843 -> 844 ;
845 [label="mse = -0.0\nsamples = 1\nvalue = 5.0"] ;
843 -> 845 ;
846 [label="X[5] <= 2.551\nmse = 0.001\nsamples = 2\nvalue = 4.967"] ;
842 -> 846 ;
847 [label="mse = 0.0\nsamples = 1\nvalue = 5.0"] ;
846 -> 847 ;
848 [label="mse = -0.0\nsamples = 1\nvalue = 4.934"] ;
846 -> 848 ;
849 [label="X[2] <= 6.342\nmse = 0.971\nsamples = 8\nvalue = 3.889"] ;
841 -> 849 ;
850 [label="mse = 0.0\nsamples = 1\nvalue = 1.693"] ;
849 -> 850 ;
851 [label="X[7] <= -118.435\nmse = 0.322\nsamples = 7\nvalue = 4.203"] ;
849 -> 851 ;
852 [label="mse = 0.0\nsamples = 2\nvalue = 5.0"] ;
851 -> 852 ;
853 [label="mse = 0.095\nsamples = 5\nvalue = 3.884"] ;
851 -> 853 ;
854 [label="X[7] <= -122.445\nmse = 0.624\nsamples = 27\nvalue = 3.075"] ;
824 -> 854 ;
855 [label="X[2] <= 5.746\nmse = 0.756\nsamples = 7\nvalue = 3.842"] ;
854 -> 855 ;
856 [label="X[1] <= 33.5\nmse = 0.101\nsamples = 4\nvalue = 3.141"] ;
855 -> 856 ;
857 [label="mse = 0.0\nsamples = 1\nvalue = 2.639"] ;
856 -> 857 ;
858 [label="X[7] <= -122.53\nmse = 0.023\nsamples = 3\nvalue = 3.308"] ;
856 -> 858 ;
859 [label="mse = 0.0\nsamples = 1\nvalue = 3.521"] ;
858 -> 859 ;
860 [label="mse = 0.001\nsamples = 2\nvalue = 3.202"] ;
858 -> 860 ;
861 [label="X[6] <= 37.97\nmse = 0.099\nsamples = 3\nvalue = 4.778"] ;
855 -> 861 ;
862 [label="mse = 0.0\nsamples = 2\nvalue = 5.0"] ;
861 -> 862 ;
863 [label="mse = -0.0\nsamples = 1\nvalue = 4.333"] ;
861 -> 863 ;
864 [label="X[5] <= 2.218\nmse = 0.299\nsamples = 20\nvalue = 2.806"] ;
854 -> 864 ;
865 [label="X[7] <= -122.23\nmse = 0.063\nsamples = 3\nvalue = 3.729"] ;
864 -> 865 ;
866 [label="X[4] <= 1035.5\nmse = 0.0\nsamples = 2\nvalue = 3.907"] ;
865 -> 866 ;
867 [label="mse = 0.0\nsamples = 1\nvalue = 3.918"] ;
866 -> 867 ;
868 [label="mse = -0.0\nsamples = 1\nvalue = 3.895"] ;
866 -> 868 ;
869 [label="mse = 0.0\nsamples = 1\nvalue = 3.373"] ;
865 -> 869 ;
870 [label="X[0] <= 5.739\nmse = 0.164\nsamples = 17\nvalue = 2.643"] ;
864 -> 870 ;
871 [label="X[6] <= 37.85\nmse = 0.115\nsamples = 12\nvalue = 2.467"] ;
870 -> 871 ;
872 [label="mse = 0.082\nsamples = 6\nvalue = 2.702"] ;
871 -> 872 ;
873 [label="mse = 0.037\nsamples = 6\nvalue = 2.232"] ;
871 -> 873 ;
874 [label="X[5] <= 2.477\nmse = 0.03\nsamples = 5\nvalue = 3.066"] ;
870 -> 874 ;
875 [label="mse = 0.002\nsamples = 3\nvalue = 3.203"] ;
874 -> 875 ;
876 [label="mse = 0.0\nsamples = 2\nvalue = 2.86"] ;
874 -> 876 ;
877 [label="X[5] <= 3.082\nmse = 0.505\nsamples = 523\nvalue = 2.488"] ;
707 -> 877 ;
878 [label="X[0] <= 5.671\nmse = 0.532\nsamples = 286\nvalue = 2.715"] ;
877 -> 878 ;
879 [label="X[1] <= 17.5\nmse = 0.502\nsamples = 171\nvalue = 2.548"] ;
878 -> 879 ;
880 [label="X[4] <= 184.0\nmse = 0.486\nsamples = 43\nvalue = 2.175"] ;
879 -> 880 ;
881 [label="mse = 0.0\nsamples = 1\nvalue = 4.474"] ;
880 -> 881 ;
882 [label="X[0] <= 5.368\nmse = 0.369\nsamples = 42\nvalue = 2.121"] ;
880 -> 882 ;
883 [label="X[6] <= 33.975\nmse = 0.294\nsamples = 27\nvalue = 1.928"] ;
882 -> 883 ;
884 [label="X[2] <= 4.979\nmse = 0.132\nsamples = 6\nvalue = 2.426"] ;
883 -> 884 ;
885 [label="mse = 0.0\nsamples = 1\nvalue = 1.744"] ;
884 -> 885 ;
886 [label="mse = 0.047\nsamples = 5\nvalue = 2.562"] ;
884 -> 886 ;
887 [label="X[5] <= 2.761\nmse = 0.25\nsamples = 21\nvalue = 1.786"] ;
883 -> 887 ;
888 [label="mse = 0.126\nsamples = 8\nvalue = 1.465"] ;
887 -> 888 ;
889 [label="mse = 0.224\nsamples = 13\nvalue = 1.983"] ;
887 -> 889 ;
890 [label="X[3] <= 1.112\nmse = 0.315\nsamples = 15\nvalue = 2.468"] ;
882 -> 890 ;
891 [label="X[3] <= 1.037\nmse = 0.145\nsamples = 13\nvalue = 2.297"] ;
890 -> 891 ;
892 [label="mse = 0.127\nsamples = 6\nvalue = 2.015"] ;
891 -> 892 ;
893 [label="mse = 0.034\nsamples = 7\nvalue = 2.539"] ;
891 -> 893 ;
894 [label="X[1] <= 10.5\nmse = 0.003\nsamples = 2\nvalue = 3.576"] ;
890 -> 894 ;
895 [label="mse = 0.0\nsamples = 1\nvalue = 3.635"] ;
894 -> 895 ;
896 [label="mse = 0.0\nsamples = 1\nvalue = 3.518"] ;
894 -> 896 ;
897 [label="X[3] <= 1.196\nmse = 0.446\nsamples = 128\nvalue = 2.673"] ;
879 -> 897 ;
898 [label="X[1] <= 39.5\nmse = 0.406\nsamples = 127\nvalue = 2.655"] ;
897 -> 898 ;
899 [label="X[6] <= 38.28\nmse = 0.362\nsamples = 104\nvalue = 2.56"] ;
898 -> 899 ;
900 [label="X[7] <= -118.24\nmse = 0.344\nsamples = 101\nvalue = 2.588"] ;
899 -> 900 ;
901 [label="mse = 0.369\nsamples = 64\nvalue = 2.723"] ;
900 -> 901 ;
902 [label="mse = 0.214\nsamples = 37\nvalue = 2.355"] ;
900 -> 902 ;
903 [label="X[5] <= 2.934\nmse = 0.03\nsamples = 3\nvalue = 1.603"] ;
899 -> 903 ;
904 [label="mse = 0.0\nsamples = 1\nvalue = 1.36"] ;
903 -> 904 ;
905 [label="mse = 0.001\nsamples = 2\nvalue = 1.724"] ;
903 -> 905 ;
906 [label="X[6] <= 33.98\nmse = 0.381\nsamples = 23\nvalue = 3.085"] ;
898 -> 906 ;
907 [label="X[3] <= 0.975\nmse = 0.174\nsamples = 6\nvalue = 2.39"] ;
906 -> 907 ;
908 [label="mse = 0.0\nsamples = 1\nvalue = 3.292"] ;
907 -> 908 ;
909 [label="mse = 0.013\nsamples = 5\nvalue = 2.209"] ;
907 -> 909 ;
910 [label="X[3] <= 1.038\nmse = 0.224\nsamples = 17\nvalue = 3.33"] ;
906 -> 910 ;
911 [label="mse = 0.183\nsamples = 9\nvalue = 3.571"] ;
910 -> 911 ;
912 [label="mse = 0.13\nsamples = 8\nvalue = 3.058"] ;
910 -> 912 ;
913 [label="mse = 0.0\nsamples = 1\nvalue = 5.0"] ;
897 -> 913 ;
914 [label="X[7] <= -121.82\nmse = 0.472\nsamples = 115\nvalue = 2.964"] ;
878 -> 914 ;
915 [label="X[5] <= 2.693\nmse = 0.419\nsamples = 35\nvalue = 3.335"] ;
914 -> 915 ;
916 [label="X[0] <= 6.299\nmse = 0.25\nsamples = 4\nvalue = 4.349"] ;
915 -> 916 ;
917 [label="X[6] <= 37.63\nmse = 0.093\nsamples = 3\nvalue = 4.594"] ;
916 -> 917 ;
918 [label="X[6] <= 37.425\nmse = 0.016\nsamples = 2\nvalue = 4.391"] ;
917 -> 918 ;
919 [label="mse = 0.0\nsamples = 1\nvalue = 4.518"] ;
918 -> 919 ;
920 [label="mse = 0.0\nsamples = 1\nvalue = 4.264"] ;
918 -> 920 ;
921 [label="mse = -0.0\nsamples = 1\nvalue = 5.0"] ;
917 -> 921 ;
922 [label="mse = -0.0\nsamples = 1\nvalue = 3.615"] ;
916 -> 922 ;
923 [label="X[6] <= 37.775\nmse = 0.291\nsamples = 31\nvalue = 3.204"] ;
915 -> 923 ;
924 [label="X[0] <= 5.739\nmse = 0.182\nsamples = 22\nvalue = 3.358"] ;
923 -> 924 ;
925 [label="X[7] <= -121.855\nmse = 0.117\nsamples = 5\nvalue = 2.905"] ;
924 -> 925 ;
926 [label="mse = 0.042\nsamples = 4\nvalue = 2.76"] ;
925 -> 926 ;
927 [label="mse = -0.0\nsamples = 1\nvalue = 3.483"] ;
925 -> 927 ;
928 [label="X[4] <= 410.0\nmse = 0.123\nsamples = 17\nvalue = 3.491"] ;
924 -> 928 ;
929 [label="mse = 0.0\nsamples = 1\nvalue = 2.583"] ;
928 -> 929 ;
930 [label="mse = 0.076\nsamples = 16\nvalue = 3.547"] ;
928 -> 930 ;
931 [label="X[7] <= -122.455\nmse = 0.36\nsamples = 9\nvalue = 2.83"] ;
923 -> 931 ;
932 [label="X[6] <= 38.11\nmse = 0.255\nsamples = 3\nvalue = 3.498"] ;
931 -> 932 ;
933 [label="mse = 0.0\nsamples = 1\nvalue = 4.143"] ;
932 -> 933 ;
934 [label="mse = 0.07\nsamples = 2\nvalue = 3.176"] ;
932 -> 934 ;
935 [label="X[6] <= 37.975\nmse = 0.078\nsamples = 6\nvalue = 2.496"] ;
931 -> 935 ;
936 [label="mse = 0.022\nsamples = 3\nvalue = 2.745"] ;
935 -> 936 ;
937 [label="mse = 0.01\nsamples = 3\nvalue = 2.247"] ;
935 -> 937 ;
938 [label="X[6] <= 34.25\nmse = 0.408\nsamples = 80\nvalue = 2.801"] ;
914 -> 938 ;
939 [label="X[2] <= 5.317\nmse = 0.288\nsamples = 56\nvalue = 2.996"] ;
938 -> 939 ;
940 [label="X[5] <= 2.917\nmse = 0.351\nsamples = 2\nvalue = 4.408"] ;
939 -> 940 ;
941 [label="mse = 0.0\nsamples = 1\nvalue = 5.0"] ;
940 -> 941 ;
942 [label="mse = 0.0\nsamples = 1\nvalue = 3.815"] ;
940 -> 942 ;
943 [label="X[1] <= 36.5\nmse = 0.209\nsamples = 54\nvalue = 2.944"] ;
939 -> 943 ;
944 [label="X[5] <= 2.754\nmse = 0.142\nsamples = 45\nvalue = 2.869"] ;
943 -> 944 ;
945 [label="mse = 0.162\nsamples = 15\nvalue = 3.101"] ;
944 -> 945 ;
946 [label="mse = 0.092\nsamples = 30\nvalue = 2.752"] ;
944 -> 946 ;
947 [label="X[3] <= 1.047\nmse = 0.372\nsamples = 9\nvalue = 3.322"] ;
943 -> 947 ;
948 [label="mse = 0.146\nsamples = 5\nvalue = 2.959"] ;
947 -> 948 ;
949 [label="mse = 0.284\nsamples = 4\nvalue = 3.775"] ;
947 -> 949 ;
950 [label="X[4] <= 1189.5\nmse = 0.392\nsamples = 24\nvalue = 2.346"] ;
938 -> 950 ;
951 [label="X[3] <= 0.975\nmse = 0.307\nsamples = 12\nvalue = 2.005"] ;
950 -> 951 ;
952 [label="X[4] <= 674.0\nmse = 0.0\nsamples = 2\nvalue = 2.832"] ;
951 -> 952 ;
953 [label="mse = 0.0\nsamples = 1\nvalue = 2.833"] ;
952 -> 953 ;
954 [label="mse = -0.0\nsamples = 1\nvalue = 2.832"] ;
952 -> 954 ;
955 [label="X[4] <= 981.5\nmse = 0.205\nsamples = 10\nvalue = 1.84"] ;
951 -> 955 ;
956 [label="mse = 0.147\nsamples = 8\nvalue = 1.983"] ;
955 -> 956 ;
957 [label="mse = 0.031\nsamples = 2\nvalue = 1.271"] ;
955 -> 957 ;
958 [label="X[4] <= 1380.0\nmse = 0.244\nsamples = 12\nvalue = 2.687"] ;
950 -> 958 ;
959 [label="X[3] <= 1.123\nmse = 0.005\nsamples = 2\nvalue = 3.428"] ;
958 -> 959 ;
960 [label="mse = 0.0\nsamples = 1\nvalue = 3.5"] ;
959 -> 960 ;
961 [label="mse = -0.0\nsamples = 1\nvalue = 3.355"] ;
959 -> 961 ;
962 [label="X[1] <= 11.0\nmse = 0.16\nsamples = 10\nvalue = 2.539"] ;
958 -> 962 ;
963 [label="mse = 0.009\nsamples = 3\nvalue = 2.095"] ;
962 -> 963 ;
964 [label="mse = 0.104\nsamples = 7\nvalue = 2.729"] ;
962 -> 964 ;
965 [label="X[0] <= 5.781\nmse = 0.335\nsamples = 237\nvalue = 2.213"] ;
877 -> 965 ;
966 [label="X[1] <= 38.0\nmse = 0.289\nsamples = 160\nvalue = 2.059"] ;
965 -> 966 ;
967 [label="X[6] <= 37.975\nmse = 0.219\nsamples = 153\nvalue = 2.019"] ;
966 -> 967 ;
968 [label="X[7] <= -117.64\nmse = 0.194\nsamples = 134\nvalue = 2.075"] ;
967 -> 968 ;
969 [label="X[7] <= -121.46\nmse = 0.171\nsamples = 105\nvalue = 2.167"] ;
968 -> 969 ;
970 [label="X[7] <= -122.215\nmse = 0.101\nsamples = 31\nvalue = 2.371"] ;
969 -> 970 ;
971 [label="mse = 0.057\nsamples = 3\nvalue = 2.916"] ;
970 -> 971 ;
972 [label="mse = 0.07\nsamples = 28\nvalue = 2.312"] ;
970 -> 972 ;
973 [label="X[6] <= 35.9\nmse = 0.176\nsamples = 74\nvalue = 2.082"] ;
969 -> 973 ;
974 [label="mse = 0.113\nsamples = 65\nvalue = 2.175"] ;
973 -> 974 ;
975 [label="mse = 0.117\nsamples = 9\nvalue = 1.413"] ;
973 -> 975 ;
976 [label="X[5] <= 3.371\nmse = 0.137\nsamples = 29\nvalue = 1.743"] ;
968 -> 976 ;
977 [label="X[6] <= 32.945\nmse = 0.133\nsamples = 7\nvalue = 2.121"] ;
976 -> 977 ;
978 [label="mse = 0.0\nsamples = 1\nvalue = 2.854"] ;
977 -> 978 ;
979 [label="mse = 0.05\nsamples = 6\nvalue = 1.999"] ;
977 -> 979 ;
980 [label="X[0] <= 5.516\nmse = 0.078\nsamples = 22\nvalue = 1.622"] ;
976 -> 980 ;
981 [label="mse = 0.036\nsamples = 19\nvalue = 1.538"] ;
980 -> 981 ;
982 [label="mse = 0.017\nsamples = 3\nvalue = 2.156"] ;
980 -> 982 ;
983 [label="X[0] <= 4.952\nmse = 0.212\nsamples = 19\nvalue = 1.62"] ;
967 -> 983 ;
984 [label="mse = 0.0\nsamples = 1\nvalue = 2.984"] ;
983 -> 984 ;
985 [label="X[2] <= 5.71\nmse = 0.114\nsamples = 18\nvalue = 1.544"] ;
983 -> 985 ;
986 [label="X[6] <= 39.64\nmse = 0.01\nsamples = 2\nvalue = 0.775"] ;
985 -> 986 ;
987 [label="mse = 0.0\nsamples = 1\nvalue = 0.875"] ;
986 -> 987 ;
988 [label="mse = -0.0\nsamples = 1\nvalue = 0.675"] ;
986 -> 988 ;
989 [label="X[7] <= -121.095\nmse = 0.044\nsamples = 16\nvalue = 1.64"] ;
985 -> 989 ;
990 [label="mse = 0.027\nsamples = 15\nvalue = 1.605"] ;
989 -> 990 ;
991 [label="mse = -0.0\nsamples = 1\nvalue = 2.171"] ;
989 -> 991 ;
992 [label="X[2] <= 6.163\nmse = 1.012\nsamples = 7\nvalue = 2.941"] ;
966 -> 992 ;
993 [label="X[7] <= -118.045\nmse = 0.121\nsamples = 5\nvalue = 2.332"] ;
992 -> 993 ;
994 [label="X[2] <= 5.833\nmse = 0.03\nsamples = 4\nvalue = 2.489"] ;
993 -> 994 ;
995 [label="X[0] <= 5.212\nmse = 0.01\nsamples = 3\nvalue = 2.403"] ;
994 -> 995 ;
996 [label="mse = 0.0\nsamples = 1\nvalue = 2.263"] ;
995 -> 996 ;
997 [label="mse = 0.0\nsamples = 2\nvalue = 2.473"] ;
995 -> 997 ;
998 [label="mse = -0.0\nsamples = 1\nvalue = 2.746"] ;
994 -> 998 ;
999 [label="mse = -0.0\nsamples = 1\nvalue = 1.707"] ;
993 -> 999 ;
1000 [label="X[6] <= 34.115\nmse = 0.0\nsamples = 2\nvalue = 4.462"] ;
992 -> 1000 ;
1001 [label="mse = 0.0\nsamples = 1\nvalue = 4.471"] ;
1000 -> 1001 ;
1002 [label="mse = 0.0\nsamples = 1\nvalue = 4.452"] ;
1000 -> 1002 ;
1003 [label="X[1] <= 45.0\nmse = 0.279\nsamples = 77\nvalue = 2.533"] ;
965 -> 1003 ;
1004 [label="X[0] <= 6.06\nmse = 0.211\nsamples = 76\nvalue = 2.503"] ;
1003 -> 1004 ;
1005 [label="X[2] <= 4.922\nmse = 0.204\nsamples = 33\nvalue = 2.27"] ;
1004 -> 1005 ;
1006 [label="mse = 0.0\nsamples = 1\nvalue = 1.1"] ;
1005 -> 1006 ;
1007 [label="X[2] <= 6.705\nmse = 0.167\nsamples = 32\nvalue = 2.306"] ;
1005 -> 1007 ;
1008 [label="X[7] <= -117.42\nmse = 0.109\nsamples = 22\nvalue = 2.459"] ;
1007 -> 1008 ;
1009 [label="mse = 0.071\nsamples = 21\nvalue = 2.503"] ;
1008 -> 1009 ;
1010 [label="mse = 0.0\nsamples = 1\nvalue = 1.532"] ;
1008 -> 1010 ;
1011 [label="X[5] <= 3.24\nmse = 0.129\nsamples = 10\nvalue = 1.97"] ;
1007 -> 1011 ;
1012 [label="mse = 0.0\nsamples = 2\nvalue = 2.416"] ;
1011 -> 1012 ;
1013 [label="mse = 0.099\nsamples = 8\nvalue = 1.859"] ;
1011 -> 1013 ;
1014 [label="X[2] <= 10.07\nmse = 0.143\nsamples = 43\nvalue = 2.682"] ;
1004 -> 1014 ;
1015 [label="X[6] <= 38.005\nmse = 0.11\nsamples = 42\nvalue = 2.653"] ;
1014 -> 1015 ;
1016 [label="X[0] <= 6.536\nmse = 0.086\nsamples = 39\nvalue = 2.687"] ;
1015 -> 1016 ;
1017 [label="mse = 0.078\nsamples = 38\nvalue = 2.671"] ;
1016 -> 1017 ;
1018 [label="mse = 0.0\nsamples = 1\nvalue = 3.32"] ;
1016 -> 1018 ;
1019 [label="X[5] <= 3.411\nmse = 0.202\nsamples = 3\nvalue = 2.2"] ;
1015 -> 1019 ;
1020 [label="mse = 0.068\nsamples = 2\nvalue = 1.92"] ;
1019 -> 1020 ;
1021 [label="mse = -0.0\nsamples = 1\nvalue = 2.761"] ;
1019 -> 1021 ;
1022 [label="mse = 0.0\nsamples = 1\nvalue = 3.9"] ;
1014 -> 1022 ;
1023 [label="mse = 0.0\nsamples = 1\nvalue = 4.846"] ;
1003 -> 1023 ;
1024 [label="X[0] <= 8.818\nmse = 0.918\nsamples = 387\nvalue = 4.013"] ;
706 -> 1024 ;
1025 [label="X[1] <= 26.5\nmse = 0.842\nsamples = 298\nvalue = 3.772"] ;
1024 -> 1025 ;
1026 [label="X[0] <= 7.412\nmse = 0.547\nsamples = 178\nvalue = 3.419"] ;
1025 -> 1026 ;
1027 [label="X[5] <= 2.525\nmse = 0.522\nsamples = 104\nvalue = 3.226"] ;
1026 -> 1027 ;
1028 [label="X[4] <= 489.5\nmse = 1.055\nsamples = 13\nvalue = 3.977"] ;
1027 -> 1028 ;
1029 [label="X[5] <= 2.066\nmse = 0.356\nsamples = 3\nvalue = 2.579"] ;
1028 -> 1029 ;
1030 [label="X[2] <= 5.614\nmse = 0.106\nsamples = 2\nvalue = 2.956"] ;
1029 -> 1030 ;
1031 [label="mse = 0.0\nsamples = 1\nvalue = 2.63"] ;
1030 -> 1031 ;
1032 [label="mse = 0.0\nsamples = 1\nvalue = 3.282"] ;
1030 -> 1032 ;
1033 [label="mse = 0.0\nsamples = 1\nvalue = 1.824"] ;
1029 -> 1033 ;
1034 [label="X[1] <= 3.5\nmse = 0.503\nsamples = 10\nvalue = 4.396"] ;
1028 -> 1034 ;
1035 [label="mse = 0.0\nsamples = 1\nvalue = 2.79"] ;
1034 -> 1035 ;
1036 [label="X[1] <= 22.5\nmse = 0.24\nsamples = 9\nvalue = 4.575"] ;
1034 -> 1036 ;
1037 [label="X[0] <= 6.743\nmse = 0.224\nsamples = 6\nvalue = 4.362"] ;
1036 -> 1037 ;
1038 [label="mse = 0.0\nsamples = 2\nvalue = 5.0"] ;
1037 -> 1038 ;
1039 [label="mse = 0.031\nsamples = 4\nvalue = 4.043"] ;
1037 -> 1039 ;
1040 [label="mse = -0.0\nsamples = 3\nvalue = 5.0"] ;
1036 -> 1040 ;
1041 [label="X[4] <= 801.0\nmse = 0.354\nsamples = 91\nvalue = 3.119"] ;
1027 -> 1041 ;
1042 [label="X[5] <= 2.799\nmse = 0.358\nsamples = 15\nvalue = 2.686"] ;
1041 -> 1042 ;
1043 [label="X[6] <= 37.32\nmse = 0.009\nsamples = 3\nvalue = 2.088"] ;
1042 -> 1043 ;
1044 [label="mse = 0.0\nsamples = 1\nvalue = 1.959"] ;
1043 -> 1044 ;
1045 [label="X[6] <= 38.05\nmse = 0.001\nsamples = 2\nvalue = 2.153"] ;
1043 -> 1045 ;
1046 [label="mse = 0.0\nsamples = 1\nvalue = 2.125"] ;
1045 -> 1046 ;
1047 [label="mse = 0.0\nsamples = 1\nvalue = 2.181"] ;
1045 -> 1047 ;
1048 [label="X[4] <= 734.5\nmse = 0.334\nsamples = 12\nvalue = 2.835"] ;
1042 -> 1048 ;
1049 [label="X[7] <= -117.515\nmse = 0.114\nsamples = 9\nvalue = 3.055"] ;
1048 -> 1049 ;
1050 [label="mse = 0.069\nsamples = 7\nvalue = 3.182"] ;
1049 -> 1050 ;
1051 [label="mse = 0.016\nsamples = 2\nvalue = 2.61"] ;
1049 -> 1051 ;
1052 [label="X[6] <= 35.5\nmse = 0.414\nsamples = 3\nvalue = 2.176"] ;
1048 -> 1052 ;
1053 [label="mse = 0.008\nsamples = 2\nvalue = 2.628"] ;
1052 -> 1053 ;
1054 [label="mse = -0.0\nsamples = 1\nvalue = 1.272"] ;
1052 -> 1054 ;
1055 [label="X[0] <= 6.559\nmse = 0.309\nsamples = 76\nvalue = 3.204"] ;
1041 -> 1055 ;
1056 [label="mse = 0.0\nsamples = 1\nvalue = 5.0"] ;
1055 -> 1056 ;
1057 [label="X[7] <= -117.905\nmse = 0.269\nsamples = 75\nvalue = 3.18"] ;
1055 -> 1057 ;
1058 [label="X[5] <= 3.04\nmse = 0.294\nsamples = 55\nvalue = 3.289"] ;
1057 -> 1058 ;
1059 [label="mse = 0.232\nsamples = 23\nvalue = 3.507"] ;
1058 -> 1059 ;
1060 [label="mse = 0.279\nsamples = 32\nvalue = 3.132"] ;
1058 -> 1060 ;
1061 [label="X[6] <= 33.67\nmse = 0.08\nsamples = 20\nvalue = 2.882"] ;
1057 -> 1061 ;
1062 [label="mse = 0.044\nsamples = 6\nvalue = 2.647"] ;
1061 -> 1062 ;
1063 [label="mse = 0.062\nsamples = 14\nvalue = 2.982"] ;
1061 -> 1063 ;
1064 [label="X[1] <= 18.5\nmse = 0.455\nsamples = 74\nvalue = 3.691"] ;
1026 -> 1064 ;
1065 [label="X[4] <= 1333.0\nmse = 0.403\nsamples = 49\nvalue = 3.489"] ;
1064 -> 1065 ;
1066 [label="X[1] <= 17.0\nmse = 0.532\nsamples = 23\nvalue = 3.211"] ;
1065 -> 1066 ;
1067 [label="X[1] <= 12.5\nmse = 0.484\nsamples = 21\nvalue = 3.294"] ;
1066 -> 1067 ;
1068 [label="X[4] <= 644.0\nmse = 0.402\nsamples = 12\nvalue = 2.964"] ;
1067 -> 1068 ;
1069 [label="mse = 0.273\nsamples = 8\nvalue = 3.248"] ;
1068 -> 1069 ;
1070 [label="mse = 0.177\nsamples = 4\nvalue = 2.396"] ;
1068 -> 1070 ;
1071 [label="X[4] <= 833.0\nmse = 0.255\nsamples = 9\nvalue = 3.734"] ;
1067 -> 1071 ;
1072 [label="mse = 0.08\nsamples = 2\nvalue = 4.551"] ;
1071 -> 1072 ;
1073 [label="mse = 0.059\nsamples = 7\nvalue = 3.5"] ;
1071 -> 1073 ;
1074 [label="X[3] <= 1.022\nmse = 0.212\nsamples = 2\nvalue = 2.343"] ;
1066 -> 1074 ;
1075 [label="mse = 0.0\nsamples = 1\nvalue = 2.803"] ;
1074 -> 1075 ;
1076 [label="mse = 0.0\nsamples = 1\nvalue = 1.883"] ;
1074 -> 1076 ;
1077 [label="X[7] <= -122.135\nmse = 0.16\nsamples = 26\nvalue = 3.735"] ;
1065 -> 1077 ;
1078 [label="X[7] <= -122.415\nmse = 0.291\nsamples = 2\nvalue = 4.461"] ;
1077 -> 1078 ;
1079 [label="mse = 0.0\nsamples = 1\nvalue = 3.921"] ;
1078 -> 1079 ;
1080 [label="mse = -0.0\nsamples = 1\nvalue = 5.0"] ;
1078 -> 1080 ;
1081 [label="X[3] <= 1.035\nmse = 0.101\nsamples = 24\nvalue = 3.675"] ;
1077 -> 1081 ;
1082 [label="X[3] <= 1.026\nmse = 0.084\nsamples = 14\nvalue = 3.585"] ;
1081 -> 1082 ;
1083 [label="mse = 0.041\nsamples = 12\nvalue = 3.668"] ;
1082 -> 1083 ;
1084 [label="mse = 0.047\nsamples = 2\nvalue = 3.083"] ;
1082 -> 1084 ;
1085 [label="X[4] <= 1585.0\nmse = 0.098\nsamples = 10\nvalue = 3.801"] ;
1081 -> 1085 ;
1086 [label="mse = 0.092\nsamples = 3\nvalue = 4.105"] ;
1085 -> 1086 ;
1087 [label="mse = 0.044\nsamples = 7\nvalue = 3.671"] ;
1085 -> 1087 ;
1088 [label="X[3] <= 1.101\nmse = 0.319\nsamples = 25\nvalue = 4.087"] ;
1064 -> 1088 ;
1089 [label="X[1] <= 24.0\nmse = 0.272\nsamples = 23\nvalue = 4.01"] ;
1088 -> 1089 ;
1090 [label="X[4] <= 1903.0\nmse = 0.234\nsamples = 19\nvalue = 3.904"] ;
1089 -> 1090 ;
1091 [label="X[4] <= 1409.0\nmse = 0.212\nsamples = 14\nvalue = 4.04"] ;
1090 -> 1091 ;
1092 [label="mse = 0.181\nsamples = 10\nvalue = 3.873"] ;
1091 -> 1092 ;
1093 [label="mse = 0.049\nsamples = 4\nvalue = 4.456"] ;
1091 -> 1093 ;
1094 [label="X[4] <= 2212.5\nmse = 0.099\nsamples = 5\nvalue = 3.523"] ;
1090 -> 1094 ;
1095 [label="mse = 0.0\nsamples = 1\nvalue = 2.915"] ;
1094 -> 1095 ;
1096 [label="mse = 0.008\nsamples = 4\nvalue = 3.675"] ;
1094 -> 1096 ;
1097 [label="X[2] <= 7.16\nmse = 0.142\nsamples = 4\nvalue = 4.513"] ;
1089 -> 1097 ;
1098 [label="X[6] <= 35.555\nmse = 0.016\nsamples = 2\nvalue = 4.874"] ;
1097 -> 1098 ;
1099 [label="mse = 0.0\nsamples = 1\nvalue = 5.0"] ;
1098 -> 1099 ;
1100 [label="mse = -0.0\nsamples = 1\nvalue = 4.747"] ;
1098 -> 1100 ;
1101 [label="X[6] <= 37.255\nmse = 0.009\nsamples = 2\nvalue = 4.152"] ;
1097 -> 1101 ;
1102 [label="mse = 0.0\nsamples = 1\nvalue = 4.059"] ;
1101 -> 1102 ;
1103 [label="mse = 0.0\nsamples = 1\nvalue = 4.246"] ;
1101 -> 1103 ;
1104 [label="X[4] <= 673.5\nmse = 0.0\nsamples = 2\nvalue = 4.982"] ;
1088 -> 1104 ;
1105 [label="mse = 0.0\nsamples = 1\nvalue = 5.0"] ;
1104 -> 1105 ;
1106 [label="mse = 0.0\nsamples = 1\nvalue = 4.964"] ;
1104 -> 1106 ;
1107 [label="X[4] <= 193.0\nmse = 0.824\nsamples = 120\nvalue = 4.294"] ;
1025 -> 1107 ;
1108 [label="X[5] <= 1.991\nmse = 1.725\nsamples = 4\nvalue = 1.943"] ;
1107 -> 1108 ;
1109 [label="mse = 0.0\nsamples = 1\nvalue = 4.125"] ;
1108 -> 1109 ;
1110 [label="X[4] <= 59.0\nmse = 0.183\nsamples = 3\nvalue = 1.216"] ;
1108 -> 1110 ;
1111 [label="mse = 0.0\nsamples = 1\nvalue = 0.675"] ;
1110 -> 1111 ;
1112 [label="X[7] <= -120.03\nmse = 0.056\nsamples = 2\nvalue = 1.486"] ;
1110 -> 1112 ;
1113 [label="mse = 0.0\nsamples = 1\nvalue = 1.722"] ;
1112 -> 1113 ;
1114 [label="mse = 0.0\nsamples = 1\nvalue = 1.25"] ;
1112 -> 1114 ;
1115 [label="X[6] <= 38.18\nmse = 0.596\nsamples = 116\nvalue = 4.375"] ;
1107 -> 1115 ;
1116 [label="X[4] <= 844.5\nmse = 0.5\nsamples = 112\nvalue = 4.437"] ;
1115 -> 1116 ;
1117 [label="X[5] <= 2.959\nmse = 0.212\nsamples = 50\nvalue = 4.722"] ;
1116 -> 1117 ;
1118 [label="X[2] <= 6.998\nmse = 0.165\nsamples = 44\nvalue = 4.787"] ;
1117 -> 1118 ;
1119 [label="X[4] <= 404.5\nmse = 0.219\nsamples = 28\nvalue = 4.665"] ;
1118 -> 1119 ;
1120 [label="mse = 0.3\nsamples = 6\nvalue = 4.297"] ;
1119 -> 1120 ;
1121 [label="mse = 0.149\nsamples = 22\nvalue = 4.765"] ;
1119 -> 1121 ;
1122 [label="X[0] <= 6.837\nmse = 0.0\nsamples = 16\nvalue = 4.999"] ;
1118 -> 1122 ;
1123 [label="mse = 0.0\nsamples = 2\nvalue = 4.996"] ;
1122 -> 1123 ;
1124 [label="mse = -0.0\nsamples = 14\nvalue = 5.0"] ;
1122 -> 1124 ;
1125 [label="X[0] <= 7.743\nmse = 0.297\nsamples = 6\nvalue = 4.248"] ;
1117 -> 1125 ;
1126 [label="X[7] <= -120.49\nmse = 0.162\nsamples = 4\nvalue = 3.947"] ;
1125 -> 1126 ;
1127 [label="mse = 0.0\nsamples = 1\nvalue = 3.298"] ;
1126 -> 1127 ;
1128 [label="mse = 0.029\nsamples = 3\nvalue = 4.163"] ;
1126 -> 1128 ;
1129 [label="X[7] <= -122.155\nmse = 0.023\nsamples = 2\nvalue = 4.85"] ;
1125 -> 1129 ;
1130 [label="mse = 0.0\nsamples = 1\nvalue = 4.699"] ;
1129 -> 1130 ;
1131 [label="mse = 0.0\nsamples = 1\nvalue = 5.0"] ;
1129 -> 1131 ;
1132 [label="X[5] <= 2.598\nmse = 0.614\nsamples = 62\nvalue = 4.207"] ;
1116 -> 1132 ;
1133 [label="X[4] <= 919.5\nmse = 0.332\nsamples = 27\nvalue = 4.622"] ;
1132 -> 1133 ;
1134 [label="X[3] <= 1.043\nmse = 0.397\nsamples = 6\nvalue = 4.143"] ;
1133 -> 1134 ;
1135 [label="mse = 0.045\nsamples = 4\nvalue = 3.714"] ;
1134 -> 1135 ;
1136 [label="mse = -0.0\nsamples = 2\nvalue = 5.0"] ;
1134 -> 1136 ;
1137 [label="X[0] <= 6.961\nmse = 0.228\nsamples = 21\nvalue = 4.759"] ;
1133 -> 1137 ;
1138 [label="mse = 0.476\nsamples = 3\nvalue = 4.248"] ;
1137 -> 1138 ;
1139 [label="mse = 0.136\nsamples = 18\nvalue = 4.844"] ;
1137 -> 1139 ;
1140 [label="X[3] <= 0.996\nmse = 0.597\nsamples = 35\nvalue = 3.887"] ;
1132 -> 1140 ;
1141 [label="X[3] <= 0.925\nmse = 0.68\nsamples = 12\nvalue = 3.257"] ;
1140 -> 1141 ;
1142 [label="mse = 0.0\nsamples = 1\nvalue = 1.717"] ;
1141 -> 1142 ;
1143 [label="mse = 0.507\nsamples = 11\nvalue = 3.397"] ;
1141 -> 1143 ;
1144 [label="X[0] <= 7.366\nmse = 0.239\nsamples = 23\nvalue = 4.216"] ;
1140 -> 1144 ;
1145 [label="mse = 0.146\nsamples = 9\nvalue = 3.883"] ;
1144 -> 1145 ;
1146 [label="mse = 0.182\nsamples = 14\nvalue = 4.43"] ;
1144 -> 1146 ;
1147 [label="X[6] <= 38.56\nmse = 0.188\nsamples = 4\nvalue = 2.65"] ;
1115 -> 1147 ;
1148 [label="X[7] <= -121.495\nmse = 0.009\nsamples = 3\nvalue = 2.404"] ;
1147 -> 1148 ;
1149 [label="X[3] <= 1.046\nmse = 0.003\nsamples = 2\nvalue = 2.462"] ;
1148 -> 1149 ;
1150 [label="mse = 0.0\nsamples = 1\nvalue = 2.516"] ;
1149 -> 1150 ;
1151 [label="mse = 0.0\nsamples = 1\nvalue = 2.408"] ;
1149 -> 1151 ;
1152 [label="mse = -0.0\nsamples = 1\nvalue = 2.287"] ;
1148 -> 1152 ;
1153 [label="mse = -0.0\nsamples = 1\nvalue = 3.387"] ;
1147 -> 1153 ;
1154 [label="X[4] <= 52.0\nmse = 0.322\nsamples = 89\nvalue = 4.821"] ;
1024 -> 1154 ;
1155 [label="X[6] <= 34.74\nmse = 0.191\nsamples = 2\nvalue = 1.562"] ;
1154 -> 1155 ;
1156 [label="mse = 0.0\nsamples = 1\nvalue = 1.125"] ;
1155 -> 1156 ;
1157 [label="mse = 0.0\nsamples = 1\nvalue = 2.0"] ;
1155 -> 1157 ;
1158 [label="X[4] <= 125.5\nmse = 0.075\nsamples = 87\nvalue = 4.896"] ;
1154 -> 1158 ;
1159 [label="mse = 0.0\nsamples = 1\nvalue = 3.5"] ;
1158 -> 1159 ;
1160 [label="X[7] <= -117.13\nmse = 0.053\nsamples = 86\nvalue = 4.912"] ;
1158 -> 1160 ;
1161 [label="X[0] <= 8.959\nmse = 0.035\nsamples = 84\nvalue = 4.933"] ;
1160 -> 1161 ;
1162 [label="X[0] <= 8.866\nmse = 0.177\nsamples = 7\nvalue = 4.658"] ;
1161 -> 1162 ;
1163 [label="mse = 0.0\nsamples = 3\nvalue = 5.0"] ;
1162 -> 1163 ;
1164 [label="X[3] <= 1.022\nmse = 0.155\nsamples = 4\nvalue = 4.401"] ;
1162 -> 1164 ;
1165 [label="X[4] <= 1292.5\nmse = 0.062\nsamples = 2\nvalue = 4.752"] ;
1164 -> 1165 ;
1166 [label="mse = 0.0\nsamples = 1\nvalue = 5.0"] ;
1165 -> 1166 ;
1167 [label="mse = 0.0\nsamples = 1\nvalue = 4.504"] ;
1165 -> 1167 ;
1168 [label="X[4] <= 1272.5\nmse = 0.003\nsamples = 2\nvalue = 4.05"] ;
1164 -> 1168 ;
1169 [label="mse = 0.0\nsamples = 1\nvalue = 4.103"] ;
1168 -> 1169 ;
1170 [label="mse = 0.0\nsamples = 1\nvalue = 3.997"] ;
1168 -> 1170 ;
1171 [label="X[7] <= -117.98\nmse = 0.015\nsamples = 77\nvalue = 4.958"] ;
1161 -> 1171 ;
1172 [label="X[1] <= 9.5\nmse = 0.005\nsamples = 63\nvalue = 4.985"] ;
1171 -> 1172 ;
1173 [label="mse = 0.0\nsamples = 1\nvalue = 4.614"] ;
1172 -> 1173 ;
1174 [label="X[6] <= 37.6\nmse = 0.002\nsamples = 62\nvalue = 4.991"] ;
1172 -> 1174 ;
1175 [label="mse = 0.0\nsamples = 53\nvalue = 5.0"] ;
1174 -> 1175 ;
1176 [label="mse = 0.013\nsamples = 9\nvalue = 4.939"] ;
1174 -> 1176 ;
1177 [label="X[2] <= 7.767\nmse = 0.043\nsamples = 14\nvalue = 4.834"] ;
1171 -> 1177 ;
1178 [label="X[6] <= 33.975\nmse = 0.028\nsamples = 3\nvalue = 4.523"] ;
1177 -> 1178 ;
1179 [label="mse = 0.0\nsamples = 2\nvalue = 4.642"] ;
1178 -> 1179 ;
1180 [label="mse = -0.0\nsamples = 1\nvalue = 4.285"] ;
1178 -> 1180 ;
1181 [label="X[3] <= 0.942\nmse = 0.013\nsamples = 11\nvalue = 4.918"] ;
1177 -> 1181 ;
1182 [label="mse = 0.0\nsamples = 1\nvalue = 4.676"] ;
1181 -> 1182 ;
1183 [label="mse = 0.008\nsamples = 10\nvalue = 4.943"] ;
1181 -> 1183 ;
1184 [label="X[5] <= 2.645\nmse = 0.055\nsamples = 2\nvalue = 4.059"] ;
1160 -> 1184 ;
1185 [label="mse = 0.0\nsamples = 1\nvalue = 3.824"] ;
1184 -> 1185 ;
1186 [label="mse = -0.0\nsamples = 1\nvalue = 4.293"] ;
1184 -> 1186 ;
}